-0.403660709982277266 -0.334082102946642479 -0.281079622977879584 -0.216081261448908518 -0.317330712164868911 -0.087256205207122725 -0.391239848080293995 0.004661040090411680 0.367526002706075605 -0.235811154740179857 0.309540272298201302 -0.230415181440254718 -0.538242930920729612 0.041970446447291865 -0.124307315666548110 0.087536275600067937 0.146100089539718203 0.046173466273840509 0.042885021907948913 0.114947754599811408 -0.249678770909755932 0.050462731757223350 -0.261308765217227457 -0.264508125352707402 0.563816673058333162 0.402329967678805411 0.111914732335403541 0.188241385591911198 0.410182470396339927 0.366628304807994243 -0.297718990379295501 -0.113285036866115546 -0.230951510081127298 0.128507302259563500 0.108831366551494432 -0.465581164827328142 0.251163608696261642 0.004337211582146180 -0.177144002555731539 -0.080417287580119234 0.206880886585473406 -0.320911357584028778 0.453981727779957933 0.035404592946551440 0.135589755780029575 -0.252544836178839438 -0.010499121229074471 -0.109331880195554995 0.253452919866729853 0.299980184441641651 -0.061683443739230896 -0.121981105332500159 -0.283553536797152117 -0.221177642815027969 0.095405787700252806 -0.080887034414668865 0.002142621389163540 -0.166915899952847918 -0.229543053961074078 0.102099840378644391 0.377191136762192625 -0.015956341519383795 -0.012560404220699539 0.129231268303023894 0.221105257070156436 -0.301420498945733695 0.100246983353568506 -0.145236473142592415 -0.155479928938839496 0.012331942831827957 -0.259686082534898333 -0.267467836228997446 -0.227026607558518750 0.028510604874980059 0.040832274498237939 0.260317418495061514 0.102623199323762571 0.036261239376870875 0.158987701085213096 -0.108275867857192648 -0.079959211851784118 -0.049792446847443231 -0.291189985462423251 -0.022251881690999755 0.118199211253880027 0.365999572550053442 0.043366515676662117 0.047705747849059697 0.003693144046694613 0.034612012024234688 -0.066318031411159661 0.040243031713510194 0.061169964282399417 -0.186675836843741311 0.210297783521926546 -0.234119431701285907 -0.123561830680467555 -0.145682710507214902 -0.157600098199305844 -0.040605719733022398 -0.219290001195551337 0.265643014309978220 0.182590450270853327 -0.323745102280128705 0.075056807707817461 -0.078328420601292248 0.101249410328564174 -0.075693212477474403 -0.047095762886145108 0.132277681794624069 0.021651273525829570 0.048815888816892528 0.120096049071137009 -0.050756678573256248 0.026193273964506367 -0.084835217865282669 0.276031074588675374 0.156339403674390115 0.203275240476338159 0.007985968220506448 0.176015171111905649 -0.022982221483761309 0.098479152758824184 0.013925343173357819 -0.142494308447215029 0.125361483115917743 0.039876175719238301 0.090443677620887022 0.189612085653250856 -0.108049691711602266 0.108236651996552843 0.080216503155784560 0.022074227329761241 0.041259503128803769 -0.073719299360756468 -0.236658272180895413 0.177771725327272839 -0.043795025394376040 0.120064992395425688 0.023679232429165715 0.008938920169427321 -0.043238928060734823 0.011543030321090539 -0.021707776453446771 -0.016266331731495210 0.181609740851453760 -0.182301523104472118 0.282198401050109626 0.113163037429540050 -0.233802565686462294 0.153123248872388623 -0.043435626617655092 0.146263909637405737 0.038593813639263112 0.092651967373664670 -0.025405601937986654 -0.140250704086790995 0.053442207627587723 0.155419267442059555 0.103274243865080662 0.193835632181529438 -0.015326539013497136 0.084993152760670668 0.003103643469369103 -0.172301030013177731 -0.149723211704114456 -0.114699762207145631 -0.053653203411255485 -0.070506238757936712 0.090495921437120763 -0.003105438563549565 0.083078815078678411 0.111448839331087346 -0.006103945364848407 -0.060403219930596372 -0.155294797402798973 -0.096119582984841023 -0.008504486975334600 0.049001751076925192 0.112382958695711535 -0.072795086074373169 0.035934394595189920 -0.009145593017598461 0.075716197042141359 0.036789561118652565 0.132198819417801428 0.025406332538734467 -0.158421706020953401 0.044318617165306079 -0.080704088156258069 0.067909252722982205 0.094679665565987975 0.149653066256826561 -0.071109734772826103 -0.028979283604684807 0.091081339781495921 0.128347567455453754 -0.024497408819629911 0.107114920502136737 0.123909543770250624 -0.022612833354793794 0.175737663218838769 -0.047275943186663484 0.016261928338639681 -0.009250671225050529 -0.011864361465020854 -0.082566535634447630 -0.012081079847356162 0.068313576433888856 0.048902910840972529 0.077262136354826552 0.049606158506853994 0.108782465186697666 0.086216294518061884 -0.024491386348745269 0.002279893507476461 0.167128490722383838 0.023199233998734102 -0.091815353557977125 -0.040280327883505558 0.017727181456878582 0.017814203242065625 0.008785142954602393 -0.101957056552323871 0.010201864948113676 0.061457434181115503 0.013751929877739535 0.021402004531951509 0.030915177250974677 -0.017278168685871662 0.087838649631529209 -0.003699063879454507 0.086823209980985347 -0.004238455947476495 -0.007760820158788881 0.071571879468311256 -0.015578036997365003 -0.036288830491519555 0.061815985695339255 -0.037936461008333582 0.011675695034942188 0.044313591447444407 -0.043170589947057900 -0.011743991562958076 0.016731055264770565 0.001368311612600779 -0.003379847738584229 -0.001255301892981489 0.030835948020802237 -0.023160210427734005 0.038433125914233479 -0.046791837764896774 0.057954323768968169 -0.056803273368337334 -0.001812064938553018 0.076180395355669658 0.007465007815796705 0.035577127578346197 -0.056181459160101511 0.013699594192233940 0.020539356930244015 0.013189998678576051 -0.018534381869455704 0.027454379632450596 -0.013958983897790139 0.007005860674227936 -0.006229613751434605 0.001212691670223209 
-0.463625855607758430 -0.519045331470370130 -0.420034576602021259 -0.190832961739718421 -0.297820660498651135 0.075101542600511745 -0.470267879480375073 -0.143449559698376417 0.325554038758563646 0.007607281878166135 0.372107077899075100 0.086872062740492126 -0.248799642160453527 -0.015917265556190704 0.112366398474758475 -0.117830365040612686 0.214862288599052653 0.145201894588917468 0.079028852099695721 0.102736928372988506 0.091722732697036832 -0.060573056711450628 -0.030177433270202957 0.067181758854314363 -0.210831320499260927 -0.024526581158433189 0.041175797281759637 0.011471640379641872 0.035392228515605827 0.104117346188168647 -0.042868257519777603 -0.490537668421016038 0.270229301031741698 0.072090677223020413 0.004046575498711193 -0.205696483301771621 -0.000897513723296931 -0.026045593890664416 -0.021021841323229148 -0.002338885042038623 -0.463684039088024247 0.356084494438640209 0.085263035583964752 0.427932920812150897 -0.125370884800214744 -0.188465769737326927 0.145957014790865619 -0.083684850999720159 0.046496723513788508 -0.043347687255254161 -0.261040097437495955 0.356519068447042675 -0.035799474654764206 -0.244036763581811755 -0.176331676323500469 -0.177975631509740162 0.226266186455322621 0.126958483407572514 -0.294056807256986463 -0.187645355053586010 0.001125460240787349 0.208235397259271038 -0.107089359899311662 0.059153098079774272 0.034611799508089597 0.458355680854572733 0.083995592962997842 -0.319543866399338850 0.039052448741613767 0.102389217777134819 -0.104325518721963620 0.129607274305741010 0.125713944538238226 0.070505823650997723 0.341314754928296604 -0.121524774830213830 0.017822524426190145 0.149995747223614445 0.179254398050512659 -0.156964032736699982 0.147473341564030219 0.144889636070825778 0.166352081975719435 0.090273835191648777 -0.023304755288003045 -0.025340697383347776 -0.112288764051050496 0.039873486371713819 -0.157897535987498172 -0.130063652616014047 0.097264551742628436 0.168954632614884109 0.100716921698097803 -0.083394641778832726 -0.027595880395797280 -0.118601540142223141 0.098077846196290272 -0.041651463238545842 -0.056563727069897221 0.233245126236082151 0.141594071934321691 -0.098402860402050638 0.197796797944159997 -0.130561611677564915 -0.313412077874240302 0.133331126252798304 -0.080327690735111784 -0.064964169760553178 -0.330293435288242621 0.159989265457343488 -0.080606951760906945 -0.061922348376841234 0.157517226334569715 0.254770006586033715 -0.060496234912673773 -0.012381724634070610 0.148831289755521429 -0.019843084256252089 -0.157786913769048409 0.123205222649601098 0.004482315153459059 0.011956906835274939 -0.194243174778747779 -0.097839203972655345 0.129587371510504729 -0.019936158013224729 -0.090071969369402066 -0.019925632927912194 -0.242666392114163521 -0.041974984202518051 0.051301637802137146 -0.097093990368235752 0.028755071162192242 -0.018247245342940914 -0.164498918050674459 -0.097400768100166374 -0.089917639363824492 -0.140939223975299732 -0.015313533355513017 0.122303901385481445 -0.083438662180967640 -0.241211200316703012 -0.125143787481944824 0.057200046816082067 0.096299481871491538 0.093921797992455480 -0.043906290291826570 0.024694149567566121 0.013129355385136205 -0.040828273791181348 -0.032648337809312158 -0.140008152435379535 -0.011107361365951892 -0.027388559685917264 0.239592496569954683 0.249853862691721162 0.014560272791448628 -0.147435688086378358 -0.148249765476872519 -0.060057208052541902 0.088478109980105316 -0.037932238912221972 -0.038229842461926657 -0.115030720902365130 -0.002852167826169128 -0.042531311469383215 -0.036219796891664567 0.039929499953176122 0.171780770501968161 -0.178001688606406777 -0.088403010602635057 0.117182634099601640 -0.017925701880971645 0.168484615442825530 0.202350950837380944 0.059868767430814519 -0.183614245776350798 0.091665133722333300 -0.135562117506679319 0.223888159983215512 -0.029397036941784731 0.012372445241305322 -0.053795582934004910 0.014779053113879292 0.099854250110116380 -0.171721129577677739 -0.066092505692559630 -0.047278511875014306 0.018744120688608683 0.040168158923512304 0.088338386111678532 -0.202462585305544701 -0.012215047574609200 0.062487592148779178 0.036846628070591338 0.039745037084596119 0.053180460305546351 -0.018476432247551852 0.128447413789254811 0.208376182089384687 0.006638097111153257 0.120320090916088321 -0.061159814570509757 0.109333925960193257 0.114245782259933232 0.071511147997795288 -0.112069752484127261 0.026528683681981913 -0.118350442827419119 0.017911816453064063 0.075216918788704290 -0.084839191650268847 -0.199878026598816899 -0.120587741841740190 0.173016175692209589 -0.003132232023301839 0.081856319177667794 0.029759890329749197 -0.049946794043745933 0.015009968584694892 -0.083448233705267744 0.070903151722528590 -0.150456424000786654 0.052747192767864541 0.207024877321174472 -0.040160063621065389 0.149215744309124237 0.019321553804688908 -0.028464310524166536 -0.007402470468310715 0.086537710068362930 0.019145228504569966 -0.071375264092974539 0.014324830153526228 0.005254274708587063 -0.054453897087687116 0.074573481391445415 -0.087068462469726673 0.089150989096474245 -0.011748595933718129 -0.032449903584018461 -0.125503626140912011 0.015218936736502250 0.001209777061072324 -0.028903011584748374 0.098785653589361658 -0.000399184433024281 0.098467177165283790 0.036067020656088931 -0.043558989430407251 -0.032226352950229339 0.066417882350956872 0.067376017980441294 -0.007045592550491828 0.000911902336111425 0.019589372801858202 0.031757958248883243 -0.050547708223517854 0.037496718621124858 -0.048753201046210400 -0.000188904114239093 -0.011005826989610825 0.013215711776057269 -0.021470061178802499 0.004751110687070741 0.008803613075992140 0.000814396886671134 -0.011300423667130712 
-0.434464522822466115 -0.344847066391702373 -0.381309254137833842 -0.179412744261665869 -0.348236087597436073 -0.173548509294855158 -0.290420771000005351 -0.136296272753641923 0.317216475525133434 0.007153160531570549 0.368034438380863915 -0.104988872753751822 -0.520242260978788784 0.053527471960409301 -0.008506246447084221 -0.263170446145807646 0.109200676525405410 -0.036831665285722542 0.423967943153582660 0.183915745057711327 0.138280280362826469 0.061095142382719264 0.257331895556872581 0.184372575502263658 0.063292637831474485 0.140868317165682017 0.208594973169602210 0.173230092029088262 0.020746935118067304 0.095027908500864941 0.289358267350308562 0.106688385038490541 -0.056709454794099896 -0.342307960464488636 0.139476587088911280 0.072540174463241611 -0.300264109121989753 -0.151224287125008905 0.162466794121345043 0.039797809892659228 0.065969969662481850 0.021491086366302183 -0.152574733174285049 0.073992677070585211 -0.034368314364455303 -0.089450645282568658 0.110431738566564297 -0.287402855269389745 -0.025617820225123791 -0.015663022298746960 -0.110821393841257582 -0.289836003997404279 -0.067402552798118062 0.202169948470379196 -0.359484110203414031 -0.054675734501015733 -0.187812409011331394 -0.030873568597029458 -0.012107772568350370 -0.537634701836554596 0.219841159896247640 -0.416754351469606932 -0.064488736646060391 0.121887517700180650 0.025887600302459360 0.024497588083755253 -0.158276491501012112 0.032693569999700654 -0.121778800593899797 -0.062334815288521452 0.084932222844215866 -0.124884428740240236 0.544427940058870741 -0.055193875900155329 0.170467207722852926 0.246511321688794999 0.021169539016869098 0.020167066743675972 0.059702805162860063 -0.103607338094398982 0.068180571882944588 0.157659598213056085 0.033554672372817534 0.045094102594578772 0.104238311492371102 0.034730142734396383 0.178171170846774085 -0.131107049138766474 -0.292966946547734752 -0.130089853015117662 -0.112178225392994338 0.094770541395357094 -0.204896413786041204 -0.148555591029969319 0.185866386236175463 0.101814832164124527 0.057874048010176732 0.175424147238569667 -0.028344844204123757 -0.035328200008214530 0.271296712626039049 0.186213880969716000 -0.319421573440923090 -0.038408289187200025 -0.245178439196001074 -0.098776290162552280 0.100448512208896321 -0.086805977683735394 -0.194247100901154296 0.201574222612760590 -0.103302617069979119 -0.203699600126030778 0.078824586078660164 -0.045108813846571637 -0.136883952393572900 0.143707584205346101 0.099110858177619721 -0.007279684819693672 -0.107464518276374932 0.017990293669496085 0.400853528954243199 0.027752248428177525 0.115647346218016492 -0.132321558804275402 -0.251481925606344359 -0.140995683558953699 0.041751144179695977 0.144045723667584558 -0.090122935893809417 -0.053724961409413408 0.025258824469658082 -0.120628630856814023 0.249436241163475403 -0.201451858207377238 0.115549714340585877 0.156331784688575670 -0.078850874831472337 0.142389379883156447 -0.104482771854162229 0.107905286950422744 0.035047999153918180 0.050383956650379466 -0.149407899435940211 0.047587115794464167 -0.193197838414149003 0.057196042173612335 0.080147000108969621 -0.026824379956151119 -0.050185746788774195 -0.011189128667714387 0.104120540189131805 -0.006089637314970225 0.065565337275094532 0.349455482618029278 -0.036541021557328503 -0.138835947700625739 0.061463341945951676 -0.044196950030845866 -0.041596740748236959 0.054378982156425233 0.019874142608619617 0.127395466543863800 -0.043999755294447579 -0.058189797803190960 0.013609054822466504 -0.198932025067566548 0.051064813315195128 -0.140059780479310336 0.046765346376507172 0.120224246225505135 -0.024665434674939913 0.150683224915662967 -0.109853296011406670 0.143305698163166517 0.129896021693410940 -0.261188492235046643 0.106852163342312803 -0.103322135398867046 -0.050707331140595856 0.086263511760170386 0.134370821112518607 -0.001711113131528878 0.233563241305665664 -0.150823048034294194 -0.030276031934252896 0.179400802260406250 -0.089912307664484506 -0.032804646949816517 -0.037588726134326692 0.038988824162818431 -0.067821354175558388 -0.053998813521669145 -0.183706496308926104 0.019032384485700000 0.052372710561723719 0.054429157461551053 0.036862334810354350 0.027102787964955844 -0.137065756107549314 -0.038957787490862490 -0.099024067269407406 0.080087170898424528 -0.027113861408259964 -0.101227112450545872 -0.105827750401970969 0.095773333857422427 0.047765974995651383 0.051547271365054353 0.055830397371538963 -0.068480284400380509 -0.124838234569803738 0.074657477288358545 -0.062737109112125794 -0.059182455677340921 -0.022236393125288859 0.002174137332728485 0.031753533003062911 -0.094380718495928079 -0.062199613474487721 0.027051027605569149 0.030949918290094643 0.006020280695250268 0.014103977997427797 0.076708000008791230 -0.121424662252637205 -0.086007854027627256 -0.043377879040635135 0.022485120547913056 -0.031399707242934262 -0.035699580916984920 -0.024024131580802185 0.029659469742968587 0.008866441276950103 0.053982377697103026 -0.035364202276314489 -0.048572161007993137 -0.029731402408605924 -0.008860335899389032 -0.110191150548745967 -0.001868943799191010 -0.020917075229734166 0.019403819690303321 0.060353254892024845 -0.008061700363131008 -0.026156662377994445 -0.011712139491750703 0.060064108348741402 -0.056566775976415129 0.036683536378093781 -0.025418909455183051 0.075696030652490739 -0.045796824685248323 0.004980094468911485 0.002273949471725828 -0.062194550372138668 0.017065685442514151 0.016201326812626940 -0.009754518381318631 0.018246423661242291 0.002301162675674066 0.040210578699682080 -0.019957505661575042 -0.041453996867236782 -0.010868681172482604 -0.010757119638210185 0.021855613517128846 -0.003042409487093203 -0.006647091138665103 
-0.476271707428885971 -0.361559330877007867 -0.321413474927921383 -0.264868226401226259 -0.306685660746035760 -0.084191851114301122 -0.413792674995692777 -0.102121591786353091 0.618783911899446704 -0.124453760630956936 0.140678635448945849 0.036057730568482618 -0.361640555498038918 -0.038100308882126614 0.228741332168177769 -0.165509126337050949 0.165553651569583210 -0.049006843960933695 -0.215472180168110067 0.018105927895952723 0.063172762881982522 0.041900829225278595 -0.172306404076071895 -0.278528424384543893 0.092982157130408263 0.095163217137110775 -0.038800439619900401 0.147594472797317189 0.206057860962710226 0.129005008099914553 -0.160347698225712515 -0.107485001935226879 -0.018792651826299120 0.064776447375909013 0.066653482231733452 0.204395386028669107 -0.276169266122723911 0.281484578879701575 -0.061771329510208278 0.022518494865662923 -0.040161160835155002 -0.226727836616793882 -0.329888886464754671 -0.204114749755559211 0.126868128955233889 -0.098333103913083267 -0.047807718712303229 0.247679116463385529 0.310667115890020995 -0.194539134713674844 0.262642844768500694 0.094746419252952740 0.414600272005445136 0.006580225259838925 -0.145790129537621327 -0.137562272976618355 -0.151558792219759014 0.197477510730903943 -0.103471470646469985 0.021528050558887513 -0.416539544240905280 -0.009561074168841789 -0.050927934189474819 0.212672473047560151 -0.081326045824682738 -0.029193944468931369 -0.172638277897682074 -0.000568479523871713 -0.190154632854859090 -0.153044831445668245 -0.023844283413286944 0.072097599679791818 -0.122343662379567855 0.079929387586128206 -0.138294448199947295 0.085581727638483776 -0.119570309378065676 -0.149112118057701803 0.181081400478487198 -0.171381564514973384 0.054678853190805038 -0.063393239099793150 -0.041645875705703994 0.049930511381883515 0.144593840087930886 -0.181395086602858024 0.279519086321667276 -0.181841837075833762 -0.070479547755762553 0.220982860648650969 -0.184983127354067328 -0.008714649258013518 -0.236884179055210586 0.045952976172172047 0.193213225408750716 0.366778412986480673 -0.122606198213819795 0.239659874012076085 -0.042481048256958885 0.070865454422682356 -0.140888490499417901 0.174237264461290092 -0.041002197035434174 0.003795228486962227 0.227689613631818749 0.102573338656481536 -0.115122669805073213 -0.077189609230219586 -0.140061525721168423 -0.190457307409915816 -0.040507803347467647 0.174573445974283703 -0.072710187926663131 -0.126870108220349054 -0.070011180874003570 0.153086053563345037 0.106963179487164523 0.224799144237260135 0.197180983185921310 -0.023115993434120977 -0.139597969948893369 -0.287230219913785834 0.345329830698665907 0.035309653763216868 -0.026510120018617488 0.210055317334958302 -0.219812139748662483 -0.025558489942766511 -0.045542504806775540 -0.257438920021162920 -0.256336844204267889 -0.099164750527309872 -0.083445855175170502 0.051301298926211762 0.049717239028279764 0.000441190200190746 0.034549483555718290 -0.025540383547108945 -0.009212158074551198 -0.231865034068673398 -0.110791507005964490 0.021039564658675337 0.054860033614438176 -0.040847505850919501 0.080148711197758585 -0.098675214285556395 0.198101405489401250 -0.128799510153984165 0.176050055492160212 0.136033742902912536 -0.041706259267080770 -0.010180507325364492 -0.185280804316018927 -0.073127101836376579 0.090422158754907681 -0.118097313266006851 -0.172658732211464688 -0.196712314299915786 -0.162698490814870617 -0.036467494702884573 0.037820281166418487 0.056871827583308603 0.015241981064096532 -0.028820477453959253 -0.151712608905220425 -0.001941889575895416 0.006855905494735474 -0.062662416312305499 0.050819138142534963 -0.114672052347544878 0.216083418141258560 -0.071449469146902769 -0.075361394581320532 -0.050444886200006742 0.022657768339913838 -0.070033545633940236 -0.047456214340722405 -0.143593686931971942 0.079403541180581849 0.063997600591415099 0.156379481770562018 -0.112030953091591168 -0.010033961438882138 -0.089482561579796838 -0.175348741444151968 -0.179455656070978381 0.054483093580773301 0.120430175666705039 -0.004800704226757465 0.023656580293258764 0.033155985135826328 -0.084381794602400639 0.128009881930302938 -0.035456426087738017 0.004531273382961365 -0.056575018373563060 0.114407438385993848 -0.028817754309824258 0.064924480468650611 -0.014034226542046262 -0.062610192976637363 -0.115395311225184038 -0.125320321828286729 -0.061935893909170599 -0.001830114165243952 0.163381505111763053 0.031179171538985983 0.119677411522992466 -0.067676776377188483 0.010948805989138043 0.071899276664088824 0.093287886359889008 -0.118203141374615059 0.177481722957451210 0.054441801876230357 -0.128944350692892729 -0.109061050443674951 0.117011305944548685 -0.046374858785844505 0.142161670209965202 0.024917788235005137 0.023164355416279644 -0.047424804096401041 0.167645608489408404 0.098172463057642101 0.093877610256530228 0.031002011970029390 0.030110043041710572 0.040537991009795764 -0.025401077898924738 -0.007982334021433503 0.145266798737000713 -0.044563280130298810 0.061552828409552028 -0.062247431033783072 0.072895693706641645 -0.079715233392420703 -0.012020614009814514 -0.013283874411233290 -0.042951373368576753 -0.011046388730507648 -0.042536340136315194 -0.011010324521179031 0.094973804119571695 -0.063127784645564539 0.003311600727155095 -0.012596738312118135 -0.019147060347184434 -0.008572681309215015 -0.101903851272000093 -0.025960485690701824 -0.032929384276981839 -0.033055720363343102 -0.079350184575364552 -0.106068726646932024 -0.021100345962237893 0.031033763533543736 -0.044619817665905261 0.040960130930192892 -0.022478782727391261 -0.000314551515732809 -0.026946476199631399 -0.015544534150702380 0.007756533792519387 0.014244482583772523 0.001756616433159225 0.006822456130505988 0.004738249365995711 
-0.401165253937518618 -0.365423015083002178 -0.296306681371274583 -0.231880558569130729 -0.288781708198595166 -0.117372292171474088 -0.321542417355767385 -0.153515791929208251 0.702373814148466447 -0.197234770208498722 0.428808567003592545 -0.047244463993399037 -0.313140579922776274 0.049032965413950240 0.050052302862420794 0.029203434983703796 0.015223393586166305 -0.330545969619354951 0.139592413313320535 0.422380502470754704 0.011032683730684455 0.090714936980287680 0.173799073774838053 0.373544983017616072 0.012258550382136555 -0.170019740144055215 -0.285666647725412337 -0.112458773784307506 -0.197252462030940851 0.034360050991087202 0.121957389740005973 0.085915949735870592 -0.103479282562658398 -0.092907602011325294 0.269295673565987548 -0.138869151747180453 -0.006736886242089356 -0.163921909956645129 0.246586926001668205 0.475958086304085148 0.071255512104348662 0.025514648214655485 0.280417330977352108 0.151919828104760818 0.167390108860821646 0.004588880265414449 0.281224277335194339 0.034754699003261759 -0.238934595348906570 -0.212920458877731089 0.059749744768415908 0.130781589235323792 0.301599668128734621 -0.243518610762492732 0.046300331764334929 -0.033375243970806143 0.040175886905220677 -0.181421624984552582 -0.095292068270027910 0.106870518225375771 -0.209205824963474257 0.177708784833092021 -0.142192059939388882 0.018425048349449340 -0.002053148262844111 -0.240372053067629571 0.394861945409480830 0.274547171610881546 0.139623174755305557 0.096951910035964525 -0.193242814652553857 -0.072238955803518065 -0.021688392560140293 0.423665301948091433 0.002177730208689978 -0.220908911949834585 0.017588122399628526 -0.017706510483361509 -0.010772311134980332 0.009033057504762522 -0.025724427885786338 0.123828945944804078 0.218282280650271110 0.067193615116538319 0.015459717812038727 -0.173134212677941629 -0.082833692734240488 0.133534139776090272 -0.006767167959495638 -0.126938136810706037 -0.257597899253014462 0.025058063977025900 -0.141590729793456771 -0.059566283222919895 -0.164790621155482570 -0.061602086621331015 0.064462826486629293 -0.000556249527330883 -0.090190492632948469 -0.149434029421467190 0.076860210311169963 -0.041421445114669476 -0.070083401718150043 -0.014126179740357445 -0.111314056532085509 0.268283542020073484 -0.030361541039939956 0.155263712561512029 0.020865407152837325 0.037231877701360924 0.255542467470086854 -0.204844046509298439 -0.199856200205038692 -0.204985554752578958 0.130801468418381528 -0.034827645556808298 0.099574547870048005 0.028906334885143624 0.256213392863985367 0.033763041544140018 -0.053437534256850522 0.004882259279528862 -0.176761123419504285 0.296665566166258388 -0.011568510613613006 -0.122995341853589027 -0.166928301653197247 0.037381274261660227 0.091193100288389589 0.017488486305772526 0.001876756961503731 0.054156661909541333 0.101617024298537140 0.127369354719580746 0.097772836837815777 -0.019080488770373171 -0.027678831675334047 -0.000597015352559016 0.236104749393858060 -0.030930269170219814 0.205067680277332964 -0.082940807137505193 0.043744619922651079 0.106504694195275279 0.231370226604152823 0.092741370257083594 0.265461288729161748 -0.167443455136942865 -0.031713823677422689 0.085313604751219532 -0.007615267265457928 -0.092775458311914999 -0.028091464707324158 -0.023749510038463807 -0.121855628700087329 0.268595730433207724 -0.143721398937056821 0.234028430403475429 0.111355935197026287 -0.004242784107396185 0.096089834972327356 -0.208120911126187885 -0.091490180031656224 -0.073345713120340883 -0.044576660274301745 -0.218931999963131396 -0.040047962726533742 -0.016633349780456035 0.112276796576043850 -0.079811216594527404 0.006796199738360644 -0.046541108385337142 0.021326750368128585 -0.033915992207896650 -0.066511914577060072 0.127879062240127711 0.121783666489925044 0.175986904585279574 -0.004000495314405088 0.051692441273530114 0.017721709657121273 -0.100917390896224465 0.093427595269341468 -0.094525054977645934 0.056056709447037431 0.088401789567590733 0.118561847721412927 -0.092432572648970895 0.027630605467477608 0.069557460076793545 -0.079149741480096472 0.058686620983373725 0.138215553455520168 0.007338962143271622 -0.086259400519618654 0.052662927044832955 0.009726749547701979 0.025623438408301124 -0.138125638956447444 0.134597684831921027 -0.023782914022561767 0.124508815724740360 0.102289753848098408 -0.176282117065995531 0.158154089529940173 0.097481959707467661 0.014228099879389462 -0.113953469917850450 -0.000642683437898057 0.058219868901746838 0.059724122315619479 0.009300762332065284 0.046354696435769366 0.003408822715588575 0.017417560210068676 0.009997240068074816 -0.127162553906160436 -0.078559584696193452 -0.085480944261468794 0.197897489133259386 0.034463509576887888 -0.006665374437459317 -0.084052552941557043 -0.071787625553523055 -0.080568971040590021 0.053354301028122074 0.057905329514604358 -0.069159426897510007 0.051491547496334104 -0.001402621999992778 -0.026130597245496805 -0.032099096590263297 0.000401359115596648 -0.031389602546943930 -0.040984347979325556 -0.084579359312560234 -0.012136060632646991 -0.052771626126722107 0.070421633880033960 0.004016620381078735 -0.011452387345226057 0.164778515707706796 0.071752614734077916 -0.057091471569422299 0.059688192864949495 0.054351562578549145 0.005079558688659057 -0.030939353538235761 -0.021251426702703705 -0.071046336942354890 0.022181083939100829 -0.027506996610497682 0.011960174586314105 0.032632970466386108 0.012602726446806158 -0.007838173214477998 0.036711318771417534 0.001054405866511515 0.014412292550072798 -0.009402952350190310 -0.031186633331681039 -0.016993963276008755 -0.018365407757965375 0.022748186860213505 0.003526782238020196 0.027233683818895116 -0.036700971712836081 0.024628290325771813 
-0.408337630320117384 -0.403111014036924786 -0.354621400492039662 -0.237574263483454007 -0.363115313661335315 -0.035277737255724154 -0.484903600702508542 -0.146930318607399940 0.339992157869535017 0.128388294476289383 0.265807057596476493 -0.004591545090140052 -0.324533601839444186 -0.007498827439580488 0.004549045831239768 0.193557644167953152 -0.172340308097301526 0.337637976774576187 -0.238773930420462299 0.218533165941078633 -0.105427885296943316 -0.108555237452136799 -0.530912805049540193 0.108357703991373677 -0.248343851588548603 -0.176665991147219092 -0.138999754800617326 0.063880683417021258 0.138480409606895727 0.173679216990662966 0.030231595914480266 0.127586902162163091 0.087660364987156111 0.202735406823594005 -0.422806601850344466 0.166768882344624531 0.111047590515662292 -0.138363103610259275 0.166679897397541354 -0.009560951513954044 0.263425706748432131 0.388254710040703555 -0.161452089740980853 0.230329993917667702 0.007320779842683574 -0.061291013042010116 0.144228655573277242 -0.345328354235673096 -0.260125814945706135 -0.103709701766759546 0.173412197125727252 0.062608847270278725 -0.028407290879398816 0.225830902916806547 0.400007446465320327 0.020790678168088918 -0.357627417036597561 0.011369820278058723 0.169886802218414845 -0.189677496886118763 0.062447733685842374 0.254450587017519159 0.223071415587193261 0.233489593133589385 0.131081440902015595 0.185719248546335536 0.087158821168607792 0.059179356106235113 0.027130626609459415 -0.089542008028918582 0.262415090329497502 -0.188543234821048983 0.030018965697157556 -0.282219517715152857 0.093364359977948619 -0.162669065413438257 -0.106015478511866545 -0.193272134823747804 -0.103170513170788777 -0.075670878299118671 0.067452826383406272 -0.070700685384487483 0.095214924094722972 -0.307022440375656847 0.194681982889989530 0.090236807048142631 0.003751571941343512 0.117011566348246887 -0.126317847147541185 0.073032996512159859 0.145622119896958724 -0.002675449234355764 -0.097859743529889714 0.050347952595849357 0.124858496345791090 0.061224591238908069 -0.064228689254968913 -0.247083295071823666 0.230103938067011377 -0.005308168311813593 0.044947551267237214 -0.100967720959086460 0.121504958175928726 0.144944371269963096 -0.101126899251468519 0.053555725957736597 -0.095579566430323809 0.221042213892172601 -0.054986232864421100 0.254116884965843282 0.110951067714898155 0.325791898983410155 -0.000425735219977498 0.144266446528745290 0.233961409291304628 0.227212660138238653 0.183330338746008986 -0.009935825966874739 0.513413370876447339 -0.099210730296469263 -0.096604475860395875 -0.242314221368802263 0.219378705709796784 -0.058793533162303825 0.082826942815341531 0.105182489422294440 0.103253272840077778 0.104098251380007070 0.073657473679074603 -0.184604225609901557 0.080041306441593796 0.085891435358654761 0.174136065130028522 0.033040651561906144 0.110751833181990708 -0.103465327267075816 0.095601278379985943 -0.011680361004725314 0.117073364306639394 -0.010095370545800115 0.129388080751435985 -0.017026951030918475 0.052883864935047813 -0.045463298951309912 0.070285745843689615 -0.119263709047356170 0.013052833139000528 0.125640474014973386 0.202682832659607959 0.002503594372428355 -0.028524653955275869 0.235345343254821732 -0.130015936042733954 0.273683270347288399 0.051457416184405975 0.071281878781760316 0.103406010529745934 0.004173828850986361 -0.109310995327494720 -0.232907725067269034 -0.031844898041791220 0.087707302978766069 0.048414550037864650 0.067121326245789856 -0.129746643199058848 0.115927168512933443 0.236508387865155767 0.153582228374085472 0.196401713191657751 0.038373980549312688 -0.012806060869387952 0.154697420920836048 0.017945589927865949 -0.038117056877533924 0.000926743602864990 0.033836177084906556 0.144262899356704943 0.018745288704245772 0.081839578848668895 0.063179134165606943 -0.063790787830423315 0.015821931712359721 0.137821082767998260 -0.086243612422999008 0.233320134521987854 0.053482255033815956 -0.076733684441737129 0.055254768223058005 0.114629796778244045 0.022126911082202640 0.056789667229995906 0.054415966562259159 -0.063951171464756373 -0.186398040545236870 0.075593270019082476 0.017339235016713080 -0.026106957558317222 0.033124832602768710 0.144263788204197357 0.030934133817306721 0.023426279696044942 0.073984678896505535 0.081042659934106420 -0.001664553053482427 -0.021978311871995553 -0.004870812301733989 -0.003678398246792761 -0.070407590810575293 0.066496358764434882 -0.050882612133755223 0.102057818362464886 0.050346919606784661 0.018397227647106371 -0.032171236753706957 0.115022821935886546 0.001154355983993193 0.089274678811712596 0.026368850357041680 0.061663655563501597 0.010703856489759146 0.011086571385663347 0.046215977229187563 -0.023627934753257255 -0.074406686759142193 0.012855303159601589 0.019117064466548265 -0.009497419409998683 0.032685509830879575 -0.005245009595304774 -0.010230674027230748 -0.126710682151686238 -0.041096868458651549 0.059818010303046724 0.094441301397514527 -0.013039794725590496 0.004337449314906872 -0.049484909476397089 0.053044133420401089 -0.081092382491155385 0.010423904945592527 0.076655740770213962 -0.010581209020333120 0.143650575022156890 0.012211589771151759 0.072496321827627178 0.063067348675548085 -0.017494431467861737 -0.022757562984476610 -0.045612464147974284 -0.032399759007220266 0.015909951399211111 0.099387229106137703 -0.058883409722002476 0.093971861022298847 0.022443090585827424 0.031827592956129504 -0.016134465712958099 -0.030059916696372944 -0.005169138820926971 0.044418846120867835 0.004813517817408314 -0.051558897800113815 0.034075112404152924 -0.005292940398058931 0.007807570656003294 -0.026653020938962779 -0.014534702819943277 -0.004276496185193978 
-0.382130885828798783 -0.441356028743089324 -0.341962775947356357 -0.236806058503986283 -0.401217497040636417 -0.014178296949293370 -0.552079554735694367 0.022613613140959075 0.354154283770009237 0.100963740744831887 0.175054085965401923 -0.130148435454150002 -0.388640643307502032 -0.181557037592162213 -0.042685599069008567 -0.046317354473650714 0.275320830804854533 -0.153079689135880270 -0.162092054640518374 0.595914554721787670 0.078143300666868393 -0.177576915924216566 0.051493782905049530 -0.067457020296628603 -0.058637592038069924 0.278023588503564623 0.055822758536031351 -0.155343268655931732 -0.315655754289977164 -0.193423219477834335 0.095422429449093044 -0.105385036801460857 -0.199489948001596307 -0.166585594937034315 0.041563660582293230 0.039522483787633456 -0.051190693730832112 -0.345280269048655886 -0.077811604421423361 -0.161449485256025371 -0.500459748634562773 -0.310883216911912896 -0.073834466489713840 0.164802424085845139 0.044698941272364838 0.094458336651805308 -0.059099444699633900 -0.445617080283847555 -0.024641089926831856 0.151107508954137881 0.368484066740800809 -0.132156533410259958 0.156334576757095972 -0.148174412014458690 0.148359212231657073 0.191630905958605463 -0.132081050229913899 0.277535827779801625 0.086501810156369985 0.156645822044097716 -0.067311610826061977 0.146663918503564666 0.100389158149401636 -0.145933348309687211 -0.156091832598638319 -0.077845398932486959 -0.010031961664217369 0.094044115354347133 -0.226251975454744569 -0.053241579572157791 -0.025279873539684090 -0.038019537891718379 -0.076583548543213559 0.147366818514316766 0.307326578503564485 -0.048957474467765563 -0.014534688215827084 -0.122689392889943960 -0.118641754045641715 0.020505157469608508 0.094584696164515966 -0.080069727558237130 0.242774221791439870 0.305028734683147174 -0.191079424701555728 0.000218489328382081 -0.006063914064442797 0.252858488645832324 0.092787426539872001 0.056378258746874015 -0.062572348020140917 -0.207216577496355359 -0.105998013769051228 0.087038485981174696 -0.092427726791468545 -0.158241724346385948 -0.068438097947811846 0.019789730289230232 0.135605837412999697 0.190826767005890602 -0.101569595760637427 0.253762933673008395 0.101650978545231252 -0.052562734591271171 -0.075730199644088045 -0.085776677399878348 -0.122369548811928366 0.030533644511677061 0.235449511856720139 -0.203244735315934510 0.098342575540185079 0.088428404600310123 -0.091581277113418694 -0.063845135334246725 -0.087298356882177020 0.390696197910818055 -0.095655336295519811 -0.234854351222301305 -0.005653485594141577 0.058043420472308739 0.242286924607893361 0.143066422040297042 0.057728955071799613 -0.062477651299921534 -0.135896698812655509 0.018772054077586094 0.216246770905761776 0.057571498781494500 -0.090384070811821149 -0.006529143518882597 -0.033142030479298021 -0.187186420566094608 -0.043121036401017124 0.035364340727958042 -0.132149804497799755 0.013406975310182862 0.125589287256012344 -0.142830568595822105 -0.047839182682704248 -0.103597969683660932 0.092157184719051252 0.133031568886153889 0.004011699777780960 0.093278547909174836 0.158669905583644216 -0.034015880827716609 -0.215031404062222431 -0.145752053728492398 0.149198114470364657 -0.115756043953050447 -0.235771290261849453 -0.083685051008730652 0.014822854505285192 0.031713055798476726 -0.095109203863256969 -0.081561021958756461 0.025642632998182164 -0.035379929435931580 -0.001556069970681682 0.112462698128955749 0.178140646525948632 -0.091661513590819352 -0.071896086412083102 0.011697487345472900 -0.255413609747062287 0.151948525686393693 -0.237737498797140012 -0.005967304927253636 -0.066852306214386051 0.112042239066638641 -0.019059444082725547 0.019547808623156186 -0.066141738158067273 -0.125533057843387114 -0.091692662441008849 0.099969221126922025 0.065407543606249327 -0.135706851207650581 -0.055321265671940706 0.020103651053105038 -0.004487684510685984 0.131052515306155248 0.164518397512351394 -0.012795995145376091 -0.037201735751501763 0.078672721468250412 -0.001724065154778758 -0.091406286703123465 0.100864293980692937 0.062762606737942428 -0.065552106792926806 -0.083155778275203845 -0.049155132893295046 0.179696300785769369 0.131209729244271794 0.048403460392460719 -0.092536835596120540 -0.023523755308089686 -0.124513442084223575 -0.071136087371634502 0.056090945349996271 0.074322822977597305 0.058872001228616071 0.173849019217562878 -0.077126949180027299 0.026385463701279626 -0.012198567764632358 -0.083987805503783375 0.100202707087826942 0.074117799443492713 -0.046367162933585969 0.022783642629823284 -0.058515929390255718 -0.079535645094509819 -0.054161308908729222 -0.075770381989760854 -0.042428300898584854 0.090611189806042047 0.144973248677434330 -0.035323163612485921 0.101270902160981710 -0.084129923730511438 0.138659391270557958 0.021916686494896177 -0.063398537508002811 -0.054378544498017725 0.122726955125239193 -0.081461281636176858 0.013012556592609496 -0.069679715497264996 0.061194231849234754 -0.030503342052666620 -0.073850008431922701 -0.065701720427080723 0.033500438814411733 0.036064559194032723 -0.053531194526767113 -0.003886187980865856 -0.100396398608734866 0.083230577056949376 0.097643052911417172 -0.104456780320958467 0.012536034717385314 0.069362161849492815 -0.003349748934339332 0.178862024402378028 0.146736355970221333 -0.078378277926513751 -0.084189758862703620 0.049467535239501405 -0.004251894190922069 0.024217084683344679 -0.083967263343089515 0.007150700294482728 0.031424208534565595 -0.029034707069376005 -0.036622156721050833 0.004436797520630900 -0.063096389732400351 -0.009085481236226661 -0.034702591692291292 0.036851179809201065 0.015105014752608515 0.018927582572642564 0.009045513360546915 -0.000497665563647913 0.003898249346619862 -0.029444862065838157 
-0.411971762510466355 -0.418396684165396715 -0.342228071194374706 -0.258322789558575849 -0.492193036850293530 -0.123949381869384687 -0.570337122421531895 -0.086457416229643355 0.109693993662112396 -0.141904067840931319 0.154864037475980348 -0.073359119194576411 -0.390081737857354505 0.146771371336306328 0.065171903742439904 0.007927003155433201 -0.113440600090448276 0.185109533551060024 0.069568108668476306 -0.124764343110123424 0.016926681126002506 0.023882415537978596 -0.267799084929012443 -0.075476145509245030 -0.071099149155884611 0.230706984842219881 0.205139771715324326 -0.039973992073883136 -0.148042297376724946 0.032961800175377996 0.075531775459514700 0.079921807878385487 -0.150355433698098256 -0.090823372660699897 0.158824771730001646 -0.038765289350542215 -0.152135679631787701 0.321199872470210701 -0.292325228222465261 0.142763274546605340 -0.046840458160497547 -0.056083633636118513 0.064915369797603151 -0.066970786114324415 -0.105059404083085353 0.039442881011007215 0.299769755001754123 0.210871803483688280 -0.137471231393540116 0.263424033519808920 0.020058365019333103 -0.120370977235386686 -0.280683916797567268 0.249953506394914537 0.081171700648054262 0.154012236997344121 0.148121191194765495 -0.196471535739496578 0.126843501559299437 0.168375976533424038 0.320756682059854137 0.024204315558274840 -0.009414702346207369 0.210751891247859757 -0.142596872776345585 -0.114435456064204549 0.316665844153310838 -0.208245214145432150 -0.294132730089182448 -0.148452556227632648 0.100566354372172498 0.246492515377758292 -0.060268597514498999 -0.273149561584374478 -0.049357363654871311 0.024880287406514490 -0.135790190039872916 -0.040239211413713713 -0.034128395832479265 -0.226287207302921040 -0.052176587760897439 -0.187392406339715156 0.268213338623111197 -0.186953617401425992 -0.222707821626261154 0.070725838890566342 0.035768298289435743 -0.145779120021545777 0.419631360835142575 0.048891323894094729 -0.047575469934462551 -0.108274233885627028 -0.283030016088017644 -0.037365914232233163 0.173624760760463293 0.305717234050472630 0.116900790225514611 0.142306592304608515 0.025699025584702426 -0.093434721203258575 0.084590859262212353 0.009359947803926983 -0.050446562534532120 -0.040982736984947414 -0.060554675206749023 0.257067730370828085 -0.164439223501440052 -0.015578437286311789 0.025444980778877507 0.097861777389142493 0.127645078022440461 -0.260375885249469308 0.182353441272791794 -0.134367501958545660 -0.209413013834162054 0.050168138591231926 0.103734504392323901 -0.057595354628028554 0.063358262525436387 -0.234832028362206652 -0.250850160777166709 -0.029603277634629225 -0.307268676819547060 -0.111580819357604083 0.041729338154644031 -0.078077508121931843 0.026092867369379772 -0.103096996265587035 0.041213500464492937 0.113240974388491927 0.007403554269232586 -0.179770570019153725 0.045834847305807710 0.166352821006996582 0.123887209278699631 0.325340297104307841 0.082174719792770218 -0.182626993016307415 0.126252172743837709 0.083260104132434148 0.161047267246765213 0.113136067017761244 -0.104638297848042461 0.127863540788108160 -0.027060556123380854 -0.041928833820629056 -0.041052998649476910 0.043906792772287158 0.083608318770836895 0.118837220024317361 0.018334257677141426 -0.085871286819805659 0.101490496900030369 0.011834956634532809 -0.173937942153422925 0.114000405826164039 0.012994147784990168 0.148473776349468511 -0.048241952316392882 0.027085502139544214 -0.162277908393547360 -0.076489579931242557 0.139550598104777851 -0.005176476947247408 -0.055573681619880411 -0.106202384063239369 0.088650621808773658 0.231158470326736337 0.074526749848379453 0.149155511178294342 0.072761999504342464 -0.151289029639621764 0.186794376710886723 -0.054143929496800698 -0.003864189419132749 0.159584772593170998 -0.098781314248861662 0.044638042173254386 -0.113558717371149226 0.110595757558072480 -0.076894460939510093 0.057722492619016991 0.063183428845376283 -0.010408911972298851 -0.061656194458293859 -0.114197817591431203 -0.128204429361779643 -0.047762579926091793 0.114005626799789025 0.042369029483082868 0.198245864385053233 -0.142463347135711293 0.150762475111070160 -0.004442886300354891 0.092642185664892462 -0.053521602804893993 0.058086758097039906 0.060371658639681663 0.114648671417625969 0.066821228777623726 -0.068960731994194696 -0.067801063090784069 -0.103589556705065020 -0.148632010934669656 -0.093225413892903800 -0.002814058010238342 0.046312258298828027 -0.204236827119139985 -0.005900599223132786 0.003731960745977626 -0.009802670660564047 0.056423853391754035 0.044732602833522130 0.044575201230861790 0.056345835707746400 0.224452515780312473 0.006646243122923008 -0.024280329911350637 0.081738265032035726 -0.140021461901459893 -0.004494974655652267 0.029462133097446105 0.059582453900628010 0.049189186265534555 0.105582289905320925 -0.102472391907628718 0.023322796839020967 -0.005913112128052906 0.188348802721779784 0.111028969885577172 0.076494046957275783 -0.028097296721998066 -0.105140449727085708 0.015041513338753488 -0.021335580309113186 0.052258495681248240 0.090774609282116309 -0.067544574609911728 -0.017263527939984119 0.011844489379538692 -0.032954077368083146 -0.026614497771693630 0.046118946062067671 0.004882459316177104 -0.117823934988733850 0.050880288398878822 0.112980660887593759 0.029660656996287775 -0.011753899391732738 0.005185396500270552 0.051678304650709259 0.016942879554373107 -0.050253560736033293 -0.005947441695202073 -0.017430604025549572 -0.083308524343867998 -0.018346563123707540 0.173400020005347488 0.041613606486192355 -0.044905311834707369 -0.006937293380751386 -0.038205893557009651 -0.044037153359123955 0.017349562960915339 0.033489317998950177 0.010562280408266527 0.004392989847332615 -0.023682398964385953 
-0.384658584616259736 -0.406848564092437026 -0.350974893548416600 -0.222988579938425829 -0.350326489802136209 -0.098571257047836064 -0.438540454716511374 -0.041117968795060390 0.314695569707509448 -0.141515840806447801 0.429974064096205366 -0.146085100563248721 -0.414721138932493794 0.267818222244916082 0.015572469424127929 0.098096456866687803 0.201492668022512839 -0.118821859977408739 -0.109853531111981484 0.195825334295325643 -0.061981035334558253 -0.114339551682688848 -0.144131395988471050 0.153419146291268321 0.252124272090267609 -0.318002997554609979 -0.117368888994857118 0.023129229496687470 -0.123205442571273222 -0.141620312041393942 -0.069192321978277183 0.040916187246541648 0.171278023943228330 0.342928660111775974 0.122317437006977919 0.178981222593712158 0.183025354430936038 0.184390091876316387 -0.177520675588284244 -0.204991159950042356 -0.008167449172445386 -0.186758414429430725 -0.251718771240260430 -0.128066879742154971 -0.129655197887220686 -0.268725263608609821 0.096405157586816698 0.241935530891711742 -0.139093368611943519 0.093013386044701593 -0.011463268279509373 0.146090758651656161 0.172777177536729665 -0.244390136858227414 -0.077000095495567772 -0.162040692059802843 -0.011871149142455148 0.175670525513750453 0.116747196995254723 0.039477822085164448 0.118931320743726823 -0.135708779635090565 -0.026392848680542747 0.175636783472530922 -0.059413697831871920 0.006776826474861693 0.093649785856490211 0.120170810430773364 0.171742134647536071 -0.128515149772682719 -0.149371997893882835 0.085635997205247727 -0.319394512024544441 -0.082482030794782557 -0.133653499966306960 -0.363182418253419681 0.132297809306698266 0.052924026786613829 -0.207177100574072764 0.217124789648554639 -0.124520601040202628 -0.370884293335332904 -0.148482735109090047 -0.000942315121630526 -0.239302774008231939 -0.300866929684310225 0.170970357739870987 0.049026048456570118 -0.052241986305757979 0.179312296337762189 0.349299084057934084 -0.025942911625441701 -0.211363793935973265 0.303625816974549712 0.078597464795060537 0.121909649095631095 -0.187394254622801376 -0.113367219979020620 0.050992121423033859 -0.087656607232428477 0.106782278317489238 -0.086051031584303994 -0.205629080501162020 0.165580371118672631 -0.146646324605368944 0.121524996246153885 0.042115131642322230 -0.095573541390399738 -0.233582623493410718 0.148262367935325934 -0.015840190398220318 -0.105656557419986641 -0.180907755374504015 -0.088294083170656013 -0.093325766493315379 -0.174474386167731588 -0.095084195713942110 -0.139000143711514451 0.039447715608338631 -0.059690312713130279 0.261633400930705029 0.139551712468333367 -0.102127560216947730 -0.157257671258629883 0.141988792119648627 0.006224306578918004 -0.104452368774959739 0.121421886425552572 0.094910526162330006 -0.052139978956500153 -0.042965055628074261 -0.191937100419603546 0.004947559800177004 -0.014261984099818400 -0.114859648121826932 -0.133023010934305519 0.060056905340411727 0.293830839373496189 0.025098896004947073 0.023778933654618192 0.026758673762328180 -0.009026883612271074 -0.149331167043678381 -0.021574196292038234 0.053129213074293184 -0.051146237927430276 -0.080090151416538177 0.018134873487183050 -0.030119186678490586 0.006323121640751896 0.007895731035467850 -0.038273818507975031 -0.054325734625082438 0.002240782408398027 0.046285105120336380 -0.196913580787830195 -0.007160388627947750 -0.160886765079655908 0.007728643772438024 -0.059962933286855001 -0.026943190144942470 -0.094125915180882438 0.027957551246400689 -0.088039639008146459 -0.007650323894316649 0.038907658983373589 -0.103449501241443503 -0.043968691529787780 0.122555325320544944 -0.076247446867594965 -0.265976767763815569 0.069695211955475414 -0.036982132167484215 0.183384425097597642 0.144233982244643538 -0.243961623350720802 -0.049820646928707399 0.132845383520024535 -0.046105299918876810 0.050080017975003867 0.049792203293141296 -0.107374348724462457 0.110180061061861845 -0.071115670379055099 0.209498446939387739 -0.055677382166324285 -0.159478131819058261 -0.012653675850616948 0.012792617874159517 -0.020394040782030672 -0.010549593494875198 0.324670937702750462 0.182907793247109790 0.096176467252247794 -0.047709472061725655 0.044568549705904570 0.024882225215323534 0.042155467146577419 -0.093201632452940136 -0.205251371739070404 -0.006575892224167212 -0.010242296924604901 0.031910842233693164 0.028691609148760022 0.043958216331059133 -0.023165407475304170 0.020066618483155094 -0.062914322778630974 0.084345708563233548 -0.037149769122034743 -0.024061005961079920 -0.028371967962503609 0.075540238357082304 -0.093245343661784955 -0.130992908526635310 0.090312150866437610 -0.065356897437056929 -0.104520180729852280 0.109043968128862342 0.006929503362930516 -0.219728719407538131 0.060478203120367988 0.043371592616991611 0.033673124945404281 0.038413662033370814 0.073666094325783527 -0.005872782210678295 -0.023731599844388954 0.025683526660868785 0.088588653949759358 0.095712770043361664 -0.056160509261169368 -0.005278916356749749 0.071836890947867410 -0.085020019779735473 0.004080901372383633 0.009458127751279849 -0.025218392906725354 -0.093894197269077273 0.005655541251789113 -0.011203377022010547 0.040774820869649626 -0.079959567113251792 -0.000398424186462313 -0.018001577718545214 -0.027301925227728154 0.069160758402349670 -0.081488569259493493 0.002504854922737169 -0.050538026744374361 -0.094141118772848018 -0.018066771734766573 0.060821485219656218 -0.023269196806775701 0.040480435096908830 0.068362530946884770 0.051478526339310091 -0.044483883496174700 -0.068332858605869490 -0.021981457460227047 0.064972778839715500 0.030038169860791532 0.028971294208509704 -0.039418245474111553 0.021806372321657046 -0.010600088492122722 0.008377241942509850 0.001193490433119945 
-0.413096340403299400 -0.331103264068773773 -0.403913669413910548 -0.215836351206166149 -0.460046911925661384 -0.103892256886822382 -0.466727932991309880 -0.071479818536122661 0.265534036263273154 -0.166383107830678750 0.430985705057405299 -0.090815309780499703 -0.321707663660839915 0.043572207276439005 0.158007082681980521 -0.072617585451506983 0.212912921311083109 0.399555788027649073 -0.080967099511035673 0.106255347051517707 -0.086934394021278824 0.114996928837709997 -0.060381004867785130 -0.142402183411401817 -0.073125065022661903 -0.137480487099105569 -0.025457753151879852 -0.127757901810889252 0.207394110259336212 -0.140467863074485194 -0.235237914023083944 -0.051060412861437893 -0.017927730098243940 -0.002362698803125752 -0.196867024734302315 0.024843009133959877 -0.210954283166188916 -0.140774777411322050 -0.317458113546144727 0.036273843173057894 -0.063140984728283500 0.072211871799151048 -0.073014544543740081 -0.089476871359001689 -0.084788517312111969 0.112269807287954437 -0.008680519646330837 -0.279482990315579882 0.290393342143317079 -0.155409062096903500 0.188729501929003673 -0.181644194384920549 -0.296683046973421793 -0.013127817647818143 -0.381953592193789548 0.091286882226990371 0.285110321881268780 -0.214645161388873851 0.149848730615296188 -0.124622761550054237 0.259387553343141508 0.114490956043763095 -0.066059461885153881 -0.138050697614145734 -0.101142902284742486 0.164486955379759409 0.086728433758274617 -0.051369400209755584 0.094885791229514890 -0.062239131073000123 -0.040372759933213209 -0.232808011854514940 0.169800284445461663 0.119142402332362923 0.066473108283875870 -0.012398977114931535 -0.020774973505323289 -0.106266372512407337 0.043665536735616454 0.404965945861606946 -0.061736712858071641 0.242745451494165820 -0.140956606512199406 -0.079923836322864802 0.246336445230885548 -0.102178671547634797 0.031938278467154975 -0.036557591401105143 0.050118848204165636 0.185081899037788822 0.057795937902979856 -0.058272450968564309 -0.212918802197452545 -0.009351074814923999 0.247845337672517430 0.094183471623155796 -0.214116160014099943 0.029596112867945536 0.069265885391850648 0.135404088478728951 -0.309586844373389902 -0.265227037933771337 -0.151150641139272429 0.036319704404311523 -0.084183303975502263 -0.168921629364214232 -0.174676726255832193 -0.069154204084008103 0.085837862583797650 -0.038272296831742394 0.173609045861314204 0.180560072983335290 -0.249344480025841253 0.016492958608020993 -0.096688403108897203 0.107546554168645753 -0.339954174275096999 0.141735726110271409 0.113803195009750835 0.052621606730889545 0.009649975552978638 0.148161399396849219 0.010569464596653757 0.017697558333151026 -0.037224823416106195 0.078002610926141358 -0.074456343537379704 -0.050430047610327662 -0.032565412296130448 0.103516063711256406 -0.109642338550648838 0.208628133492346574 -0.290738150730265099 -0.099349079268293047 0.143381457669464946 -0.060419818129272919 -0.155145022405799943 0.033023288505989214 -0.098521332604630543 0.091375245048087472 0.234032571225725822 -0.143336055769684750 -0.143044453765093976 0.012522152326172457 -0.085648619845906507 -0.013697023441776222 0.098612849249873430 0.168730503042583996 -0.258987521987312619 0.108959635137023780 -0.027006050795579963 -0.069127700121906235 0.112323340664678126 -0.158541425103589873 -0.024557522028224536 0.173850974866467778 0.104190947540171178 -0.172210359674061314 0.171555874303084083 -0.158685145589015170 0.074288785761343179 -0.084461054163923535 -0.146775517035592828 0.045555112187949345 0.137601111612187910 -0.190206127193024876 -0.056581630680450370 -0.110664194761823070 -0.070843888164043953 -0.112784683152517967 0.122678829214536655 -0.066670561501293218 0.150456682758906474 0.133277343454043268 0.199139315898213543 0.156537873226411467 0.058313399862380669 -0.120648698035316068 -0.206050297339788163 -0.073494346680134479 0.009306694630712146 -0.118474763037291292 -0.145723794384095134 0.032657495328600808 -0.058112274968548462 -0.097047558009850099 0.140466194503547109 0.118496835802264042 -0.098356485374218913 0.139934134938522498 0.031533287450785916 -0.052822939019834668 0.210228496944941334 0.023333327227962310 -0.124748087229164722 -0.159353787820991327 -0.215457285787230030 -0.050090124305319596 0.038041470051305572 -0.052021761809040099 -0.031452464695132548 0.004717776004035130 -0.063857132968298119 -0.063619518387825383 -0.002443526983055490 0.038707187205808256 0.015743709589762251 -0.021793512756946524 -0.104367007075535978 -0.014933220404068089 -0.156066812601251992 0.158510755975971224 0.155108551025202268 -0.039838369322637283 0.064975076998179199 -0.102082290314818663 0.054918211366702753 -0.023639755780380415 -0.052391978281180390 -0.009914265625541908 -0.066341884420223193 0.069517594769087712 0.077386215220322407 0.060495108657501094 -0.017408989964160293 -0.138334390954292480 -0.062536447165408182 -0.106434486456613464 -0.027700809206481044 -0.070685562551405651 0.068069223162738085 -0.005720491001950305 0.236375899385003335 0.054013749969627843 -0.077462562983023189 0.079122552486160416 0.047170193136879937 -0.009307672082103438 0.046337460805241475 0.134366126707389288 0.054897499294097610 -0.059471647477364373 -0.056825875214661814 -0.044339631179297442 -0.034969558799566661 -0.003489351361957119 -0.088007339205087562 -0.060961585275534268 -0.067134160714420896 0.008555577033368676 0.030175196613263459 -0.044580928141605067 -0.096635436062891586 -0.023678123650737386 0.037867647613679972 0.062302146142178765 0.008195620861695155 0.044226114716620003 -0.035825240915004039 -0.013366928907256352 0.021364547602632140 0.021603456884181256 0.014013997699479563 -0.008055599061103327 -0.023449326959767564 0.009676751209754055 -0.045749141974951252 -0.022087044029222312 
-0.436388166081457085 -0.449787113016137607 -0.416436120419805766 -0.258082259656886193 -0.306446254000539764 -0.078461328324212515 -0.460603221038934252 -0.121069273984833956 0.413413714573460489 -0.053266304599138115 0.240198390895857594 -0.076926247232583927 -0.347813300594351948 0.088014171335917241 -0.039651867065077132 0.337854578337873468 0.077024919080313628 -0.012760973277586476 -0.112752122374783395 0.032228933277270541 0.031995302708475525 -0.069643587382870603 0.041259370256470349 0.057628267142598062 0.140586563011226934 0.099667004887110208 0.127763470724789358 0.124657561698855807 0.010065740841293894 -0.019756684966445129 0.247068906177648318 0.030337550765531966 0.179499537680328280 -0.027144447599389700 0.033547329083129768 -0.093873710876165764 -0.276171534711739664 0.064132354590581225 -0.044474533750203361 -0.230602793307606080 -0.165647542421554300 0.040814280495368907 -0.030233887042444441 -0.045158311294779194 0.183660416921748726 0.208581228472118074 -0.113177895203566720 -0.065427684730368807 -0.025987785954556634 -0.083158996072756078 -0.308029140337861496 -0.310654320566006614 0.084407046410871767 0.148358017595630859 0.441658968740382796 -0.514234973278622998 -0.032843838107170086 -0.042870147640929931 0.146616661123727399 0.040205569045732033 -0.227979542354002113 -0.292507792207983564 -0.024464149937969051 0.115682161291605065 -0.120777244067496028 -0.028838834320343648 -0.300131322045560145 -0.044702344799395707 0.179619303871437874 0.174053329904608978 0.037723094151755635 0.032042244629807051 0.044743045311659797 -0.219731095294120521 0.053402104779412693 0.043937557246419963 0.096520743867818934 0.167360508185331297 0.106266435931369224 0.179301126296640662 -0.179371159042077316 0.332463297127739199 0.062711042789335134 -0.106193053888854277 -0.142984075035417435 -0.030357567624506695 0.057836176335163365 0.339026100033901823 0.058869536855166098 -0.052110345942588621 0.068913912417822479 -0.183422743519542075 0.150624911376323223 -0.131463136261666391 0.070512834413741468 -0.213100872053184842 -0.008426391827658997 0.047529694647750288 0.004069821493493627 0.090088688619539864 -0.049927074796396256 0.124336835491717493 -0.006827491918777347 0.022912050337386553 0.173170263475078273 -0.138599000624422236 0.012620924658045743 0.128171685386653189 -0.214936006532627788 -0.172406053155948091 0.018206674888944736 -0.030058553791029476 -0.043773661427782710 -0.052163931917078223 0.103520061246706915 0.230777760448453856 -0.262600605006024723 -0.151476021286229917 -0.089827979166939895 0.023863457668891776 -0.026740555977211696 -0.161086348338983748 0.077250259609548608 0.135624661895012627 -0.030234316844846041 -0.063966957417693274 0.048169820741116892 0.068374048512611058 -0.101224828405278869 0.076954218373597227 0.061285695140438898 0.162344239141647639 -0.047039021669941519 -0.113628342678135805 -0.016326348217114709 0.017322387341756715 -0.269748961539799881 0.039315967709509396 0.176265621019488783 0.006286746453617946 0.086952948496651195 -0.093001404109170516 0.051501489396407446 0.187817018113935669 0.008763776318622915 0.047760585802222012 0.062688981769696173 0.011613308628748747 0.060250001560593111 -0.182248643082247169 -0.085380997759728280 -0.006460401527757360 -0.141394463342748772 -0.063480940207754355 0.135407525704532794 -0.128806101881464852 -0.083381913483910788 0.211922007135828427 -0.196818023938302888 -0.111908354840652549 0.002762207898165817 0.123853215726762417 0.097807742533805767 0.103035017195826376 -0.054251838148681536 -0.201015290601915309 0.002150247033629656 0.006239997517301385 0.169275712952196677 -0.247039539985675877 0.012559701080795814 -0.024182757802459400 0.208644774281466244 -0.127664281162748500 -0.065085590274386096 0.170253575817624403 -0.155991241815834375 -0.149817942607484544 0.085196544973920318 0.148834791551660572 -0.043768351331350000 -0.064875286137691751 -0.094563668711509327 -0.139340987039087039 0.076227340714483852 -0.179169890856410774 0.082110730210235919 -0.170830523289051961 -0.050391335848470012 0.092526343965418312 0.018617768214661580 0.029376467067926623 -0.030000985152232509 -0.082767873527801808 0.100483158734894357 -0.264167999765225536 0.157323264707382005 0.119376890700305729 -0.159430873878989049 -0.157610589449438732 -0.003056417391704843 -0.079074273959280073 -0.116546061647474983 0.033490517956285229 0.057098000151768163 0.061202760996470922 -0.053125119389255591 -0.018295187152943999 -0.113084482362623376 0.032568152420041907 0.057299576033315418 0.144927569390841754 -0.031538224552643386 -0.001757384606379932 -0.128523629222810243 0.055171190999429430 0.014806777296799788 0.051082805448891037 0.002166911794103023 -0.181622122566341693 -0.016040780958923910 0.109228154069292496 0.066742408119516414 -0.134260235577360082 -0.008671656832207653 0.021647534917887068 0.044108036679732218 0.172460162390472571 -0.028489642414988192 -0.003449486287421477 0.025449402455343235 -0.070268408472985544 0.067979734897672270 0.061844962849922962 -0.010733257667610140 -0.061447975564322750 0.029866998780560091 0.066838651815242248 -0.074979936708807815 0.091358684795237635 0.035814338074899248 0.113911803833895556 -0.014709098438295359 -0.130867013882274563 -0.009349657061249088 -0.058102014522557692 0.004992469373575709 0.120618083682516405 0.077915438102020743 -0.057824487663403479 -0.003274472691557707 -0.043675201252167943 0.059080068822125381 0.026453797285399653 0.059135953136944343 -0.128904266602084289 0.008608234133470626 0.048425481843729454 0.039819010841614856 -0.029615903117506191 0.013877307027036450 0.040709306590246727 0.008023872730056378 0.030299168033156802 -0.009518441221000753 -0.013905050936302527 -0.041847894128692491 -0.010321644035733506 
-0.343323523981911349 -0.339761094055569646 -0.419125873000981974 -0.227544594584512344 -0.400408045444325567 -0.046426787987151476 -0.461409850227185225 -0.091513680055800128 0.489561088275317802 -0.170970507869348032 0.379494990807803023 -0.196424823749650701 -0.214490497060917135 -0.050743580190078637 0.098000373156735404 0.171840222788018082 0.084172797331019039 0.128396872879064483 0.389981510056780112 -0.076124660202094588 0.125494627277911913 0.149353205703060710 0.056454884944311508 0.021660663144953601 0.093696329702848191 -0.118646489773814728 -0.060611487984811474 -0.090181232009963155 0.300869414137223068 0.029057668532453500 -0.050967305796455337 -0.017906754938827284 -0.198316406248204097 -0.032476428238500506 0.147759996645125846 0.111602632402725652 0.122234250812802522 0.259332494754089649 0.395840663219568789 0.059273636719335866 -0.193484134170939959 -0.207076696255710180 -0.069536062975758567 0.060088873044959253 0.043937150481323808 0.111858153259307411 0.016140124747745642 -0.090504523322698607 -0.105269518432534154 -0.050205137906761010 -0.100827883342338387 0.108251491876294237 0.014574669020620079 0.001545504509237815 -0.196902527436041891 0.200944087829061313 -0.150455937805613477 0.257495020845756040 -0.153461948837778195 0.137115769919825187 0.011764206878090501 -0.194584661465897979 0.001490493934301364 -0.133661556450135832 -0.236400572335971365 -0.020358803523036560 0.300103171707221672 -0.087541723743757086 -0.011109545909142505 0.158528939674329877 -0.216975343802861376 0.023154971454788831 -0.066012548834995619 -0.124102798853264279 -0.252403606517327128 -0.153509003697761603 0.147457095544295508 0.048048070738447156 0.104295860732684612 0.035107916004461164 0.242587174446477760 0.096287431200871465 0.165684863884540595 0.041813251095731578 -0.032309835016399252 -0.112883992339981781 0.284500677298678395 -0.011458504501987807 -0.072764962195848673 -0.157575349447912905 0.163893822082703533 0.031190989984472166 0.137896725443989371 -0.044544516920297345 -0.207314279833351711 -0.029565222315849560 -0.112360534547386814 0.040284504297598438 -0.053170834337835197 0.071334802044299025 -0.100109427321715544 -0.060302199896625934 -0.249515979126392312 0.219166660249254103 0.109702843797239089 0.085376205561698046 0.087921274202427596 0.018077729596105565 -0.080909696439411552 0.205796189120124762 -0.114186119524389937 0.046954653106845774 -0.002718563636340667 -0.134107851226472174 -0.094300308882819192 -0.079551728913361819 -0.082984916424249669 0.163154285442079994 0.141491211261974392 0.085984704493909853 -0.083593767107189687 -0.013096372019791998 0.193624272245368351 -0.034993018214404682 0.126460329486357548 0.076174274630420313 0.109955170281800366 0.133438535804276004 0.116142925366370775 0.119698345931819564 0.015208451414738700 0.239978392982775596 -0.070096975855137425 -0.148284166275861773 -0.073967320260347871 0.172975525251166662 -0.139532046565344792 -0.220007753984892668 0.135940430801337414 -0.083486857517987609 0.112523626233195242 -0.113912988735138554 0.173982477695397736 -0.076516248179678406 -0.074510084241730612 -0.170659912277193404 -0.179063116040405063 0.060875432351302571 0.021541454427330620 0.141953340340479711 -0.052540156327566187 -0.041424519639845947 -0.194402755585816683 0.081137853118833356 0.012060864519165970 -0.266916428809652717 0.139734704687596495 -0.068571363067327376 0.002806997017812478 -0.104443431606661530 0.050042756225118903 -0.055628057845452730 -0.240166563460773835 0.219235881154116158 0.469880645972145183 0.298486937752754589 -0.057101491003635214 -0.000703116854370484 0.067375795610057659 0.017320697086755169 -0.019673224094745565 -0.042658119652085123 0.083853603858161360 -0.117127019035122473 -0.081917858247213482 0.192636308340808277 -0.210137712667905263 0.002876136925250737 -0.171606818244533915 0.064091449233476219 -0.174709392521201656 0.166157654473948563 -0.161934149649654385 -0.066080073665273825 -0.070944260879846149 0.158949719577937826 -0.126110105690743601 0.002380712678663351 -0.044019420981867827 -0.038359800391783792 -0.097612457254106555 0.069217185428778735 -0.141032051522900076 0.040987017597033770 0.138194255792542603 0.129928221674108141 0.119822942120206985 0.201408054417072935 0.038261915097587203 0.089026467208262294 -0.167349131935837975 0.011237691550424762 0.038519520202281728 0.058797849602933348 -0.106429728078726804 0.016791788099051696 -0.042643233078773025 0.082925153291962025 -0.110481093424600510 0.024747248238594591 -0.047036219396836804 -0.044805973165049862 -0.005477102567157142 0.098978945915479732 0.070323510673834772 0.085817172354592783 0.110631284832680907 0.114317683034800818 -0.035086697752055987 0.063810259986430223 -0.041178079263957411 -0.051095335900424317 0.140397799391699885 -0.162354700598116630 -0.028143431751065730 -0.016884856277119359 -0.023143516616927429 0.156778435839172198 0.022233551202636318 0.018413083420625233 0.072111411317905924 0.120716781110139129 0.032593439692960510 0.002705125598039227 -0.184472441610732812 -0.091365192020312166 0.052979159034823323 -0.105779184328432196 -0.020320313557336531 -0.054290980513326231 -0.041906349358189432 -0.071660571218690405 0.038988221720183597 0.034493394516760360 -0.090128845524741277 0.004337757183310841 -0.009235115027469121 -0.088580038293970861 0.039310559242836961 0.129423499506492928 0.058771738116341850 0.005430599437374401 -0.047243393981455370 0.025252785947594156 -0.027441066854914455 0.037664614068681289 -0.027059925550193355 0.023681388331140939 -0.000619546445766800 0.027205107965869068 0.021482569064807087 -0.009502962303692743 -0.002618145934344401 0.048174902992324020 -0.003188651210219204 -0.033301636244111789 0.004168832636772058 0.019452816963578087 
-0.320935122183487243 -0.479504348340789532 -0.332253641915743858 -0.212201214052063186 -0.232674629870389421 -0.079487226380692402 -0.350198758144144584 -0.012734455297759193 0.433090099950791618 -0.377270294630236203 0.340771525045289181 -0.155533052996264964 -0.470221817363577599 0.028655944020329543 0.168909482129714072 0.129205872362796959 -0.040619255455106369 -0.161487528032195238 0.311863193029970120 -0.293603560629787763 -0.039858904889528979 0.084203802968969649 0.549918551176534431 0.448605278972200705 -0.090142541030166765 0.104420806038910297 -0.083641681703504320 0.055389670528671268 0.204933703543577012 -0.210856148833195367 -0.328649656457745853 -0.059932771169330983 0.228816562303321175 0.218031372702945342 0.389205060347340204 -0.094274903943127722 -0.102942085018003143 -0.290116349054638012 0.029309137449300575 -0.062109023577001501 -0.136692790732057895 0.076097943338980817 0.025956506647030909 0.185435878058513109 -0.165292574045118129 -0.017229256981857316 0.058767315480914011 0.185531201194313572 -0.143868316228325549 -0.124409880531095196 -0.016378024266417098 -0.010811516454958462 0.302253501237724875 0.266822703043089637 0.135739749946370808 0.219071433054403270 0.159646559287744960 0.178577280045102010 -0.145917313412911004 0.150182474034009722 0.192791117027712872 0.073512968577918975 0.322771800388681029 0.145663946970474328 0.202074443314410407 0.110994090572279533 -0.148402738305664722 0.324354693854673137 0.049003520783246907 -0.120401785208322926 -0.060404937314286269 0.068560852539567688 -0.126161100140691762 -0.401323901998292432 -0.076968192506015276 0.181585105015571707 0.001884124190948914 -0.098907692623993487 -0.057117003304338325 -0.127648964409203841 0.077033501443487876 -0.002871274413750684 -0.143265073753388456 -0.194822690812130273 -0.093159604298680518 -0.041150235403655061 -0.130463401410608693 -0.205043196193920835 0.064607687131355493 -0.256418819234103201 0.119292411926304354 -0.024801403114243063 0.117003234485749230 0.148721865760458538 0.053060252299124248 0.012867515518433516 0.060978734776559677 -0.182231504326790389 0.012070944205175705 0.135586312590525893 0.053145741629081165 0.021288282126370770 -0.195372010734967655 -0.156461439476559383 0.080491680606615545 -0.061445892293457503 -0.012928703104030546 0.047250450252798358 0.196086519794709757 -0.024539973424497409 0.074332978136163894 0.153344310437435627 -0.132458021023080047 -0.212928740779744108 -0.003663504053363235 -0.137144859585713902 -0.149300808158636472 0.254245849178358574 0.149184255382164399 0.171681537173898807 0.088463736268544257 -0.019847173765724455 -0.084567309342111707 0.058993544205805326 0.079024402791819090 -0.091972365714938289 0.087372747817144755 0.082306958958908563 0.190860357324114605 0.092204397377132624 0.172177515265137082 -0.362649030248092197 -0.179683110541986324 0.174129951999912852 -0.012469779262861391 0.002978350763246987 -0.153968556809837342 -0.059238330093612013 -0.369276966200437484 0.129418351575554619 -0.013751035521908882 0.183810607989762564 -0.126882031854516408 0.017979433525270788 -0.064759422066827041 -0.014138171710216666 0.042342980719235528 -0.171356165154906953 0.117575535052938412 -0.053871185490366964 -0.022827076365326788 -0.077925241882061957 -0.068560691991605194 -0.061601962695548365 -0.192308441007678160 0.059384516252038784 0.210989815657311008 -0.028251264305399943 -0.248883945746723456 -0.035815799465282683 0.167958812960290416 0.019662898279783621 0.133354406001527259 -0.094349609110094587 0.060595210109975400 -0.032495038412620351 0.017601494386984072 0.028773746700303058 -0.093815880113694461 -0.095679771974142305 0.158931730611756333 -0.049359459365421472 0.040586948428897610 0.117110815624959577 0.055146507450748283 -0.098584410769195330 0.043982902537348691 0.017377319151558098 0.118654741029224950 -0.051960628035419933 0.001627087684355572 0.173957089510494933 -0.243061836960344252 -0.052550756021145027 0.166274872632813986 0.067330468157950685 0.044407322906335742 -0.029210758072886228 0.000938880533247088 0.004072197484637790 -0.029393568973157466 -0.009025348097705659 0.123060327653747803 0.018877613871276219 -0.087997656087715662 -0.085476076646308380 -0.010783868774645711 -0.117667180366208032 0.166529933542497011 -0.080897432691926230 0.011270116627246335 0.096317032187014553 0.054133202856984558 0.188195442125308282 0.016016570038912971 -0.052724490504510925 -0.070427861719887352 -0.115053904333020540 -0.134290114848435227 0.053962197330147274 -0.011080729497253208 0.067810942665001428 0.023507270736499285 -0.002432583773937284 -0.108563240342361339 0.019508049765719123 0.079413662867188053 0.039722454123282624 -0.118059364037516823 0.002469421153101549 -0.059251937244001622 0.026912394291130098 -0.059637410235056386 -0.007083391514499472 -0.060497630518362114 0.068727375088875192 -0.086388853645431363 -0.010636462896980996 0.008148464726860353 -0.069829564617257700 -0.054369795601152099 0.018849323173889012 -0.078215522432337592 0.082801964535711231 0.092502699823610285 0.002426570108205352 -0.110582107504744787 0.158696505746279054 0.029211836824362659 0.000174655593559449 0.093312943607401624 0.046436677739936746 0.027967586673975659 -0.020597444188886191 -0.001385590897540733 -0.054387207752048319 0.041255863592185527 -0.052309502135748941 -0.010968814459733712 0.043100110483350523 0.079155593223648971 0.042846977013251748 -0.017486833095473147 0.005948435977783899 -0.081191675477448072 0.020955462700913897 -0.070278165970585588 0.009379915289175651 0.031735151295952217 0.067701114601771778 0.001838753133354183 -0.059683755267500249 0.042581242504466633 0.014484794391843647 -0.044149485471498218 0.018552436501313420 0.018205169811092665 -0.015658345718634798 
-0.384666273133882908 -0.511154831163634915 -0.455367021304946051 -0.280390724532755709 -0.362735054408739821 -0.029005822237419307 -0.337786326981283247 -0.126446327666794311 0.281091869479948242 -0.121788367266170372 0.151624859224110176 -0.037815833908481457 -0.485636063093070058 0.005838982173858397 0.156464837990772404 -0.016049391332648814 0.091189489067514770 0.051814159216808583 0.095374686388648780 0.003365841534502036 -0.117569009962311177 -0.084605289767002823 -0.031532342371294493 -0.251801315142192894 0.433297165121649785 0.055606345161378072 0.155671060167952430 0.087809080758174465 -0.244308007524953547 -0.155202326820801206 -0.036476742837882874 0.240487483143673547 0.099590514656092824 -0.125160195311483730 -0.441248892123707270 0.063270048703080228 0.173961897779888353 -0.080763148273873958 -0.147544811359096806 0.046688329132267087 0.156343550334687609 -0.180652692758384997 -0.187827225597911762 -0.312163833833327353 0.017567117806268524 0.394570346780553860 -0.303285004879068454 -0.196755805208569778 -0.056757155757343775 0.204737788168058682 0.017211491059380166 -0.050179272298526187 0.140307429378615123 0.020990979922753512 0.062515887016910188 -0.026961382308961536 0.037677819832022501 -0.129592962478202428 0.275772472450138417 -0.059277474722017762 0.091177956935240403 -0.012212780822908923 0.060140366396920886 -0.212963910329472789 -0.057903641468389472 0.014619886052895935 -0.045431400933578191 -0.145331401638280622 0.173630914487213434 0.197158886165792552 -0.197409362623600676 0.162624289652445769 0.223858059236243634 0.107133690993206507 -0.005505298661113030 0.080706228021016305 0.047635392448784682 0.140988149497097148 0.030669915461102874 -0.072229541602549643 0.123820835442319199 -0.100037114809318012 0.159079829137665746 -0.055123085600359355 0.065226706794948838 -0.179043655110439098 0.227222700032154917 -0.023918149689562507 0.219403760620870136 -0.296490799279128248 0.001757373938978882 -0.235432453273894809 -0.086295844396824625 0.050677545298476692 -0.231323101384408036 0.072708568457383049 0.201844035215957590 -0.037527422815219084 0.150610395155068716 0.124940882791899535 0.114903250883628252 -0.293978980080895402 0.072129729945983462 0.077285251793338408 0.059371542771373700 0.067871524361813554 -0.002375237805555003 0.209170455206528272 0.000219962178047190 0.284399637616777612 0.092161460417076763 0.265870706498106402 0.024429491357081289 -0.065615067548846218 0.020198797887782283 0.039747894152051662 0.070191815236254188 0.142381520646226833 -0.135278902783873639 0.056303568834851818 -0.188392945927917083 -0.120997257300067079 0.084108843991315602 -0.185094935496697949 -0.196508992682109640 0.229820970963222321 -0.102830920382393665 0.122116823847251366 -0.015057978805709639 0.086408859517849629 0.391221526619207338 0.096322125333249187 -0.140396864815690914 0.411133526078467093 0.054274825635867212 0.007883993368936146 -0.014090246542106688 0.036375521572913364 -0.315636893483720649 0.003791676926855359 0.093161751753487940 -0.075518880808184100 -0.049964265942466009 -0.115311527107744491 -0.171192632718830451 0.005291509377498264 0.054541979580829299 -0.032522735932371059 -0.178222906901998102 -0.104434988310300778 0.025299976519718749 -0.104415567651618579 0.033862369898283881 0.081226373482608236 -0.045223058113581807 0.084195054667014199 0.032607495773301277 0.117807649505639170 0.034843931706852946 -0.071600398711452115 0.041129083541970916 -0.086289585461938351 0.016644312720172905 -0.028770385278760177 -0.094375521629168402 0.049199407305484347 -0.154044380048713681 0.050142459960621263 -0.112829687087478828 -0.062742431872914312 -0.121647181219347561 0.036679109272708128 -0.225248993432153488 -0.062695196102004469 -0.090521250581678217 -0.045142120514739370 0.018633723126329167 0.022120468753757980 -0.070056055812011020 0.147299594182716237 -0.121501950993112090 -0.023284419398603495 0.025313221233090207 -0.044449231205765341 0.055058567080809667 0.110595356233182160 0.091902791498850084 0.183190465959457066 -0.177493006693622057 -0.094932731398494091 0.045194930864171368 -0.102511341961690691 -0.200651590929084439 0.147114671771836236 -0.023153420184642677 -0.064125275878673046 0.173258992028381464 -0.120469985580787059 0.000088305330787184 0.016216126480744081 0.087127806371303768 -0.044754288059312287 0.013354944265156897 0.013146317097171947 0.035302050059806689 0.021280354333494657 -0.043823576606874602 -0.033943308339066391 0.177025655294562156 0.055537903668751443 -0.057568417929516696 -0.077210439194544164 -0.033643451985064278 -0.049393225061189122 -0.006449548786629185 0.064988028748851151 -0.078410084349708351 -0.004048810875892723 -0.007751932007252806 0.126254500232399008 0.031292216425151412 -0.088826959155939467 -0.149865755452645966 -0.057769720569859358 0.210908636014428968 0.064605910452025780 0.005548676949486521 -0.044732141416100483 -0.080812707124067434 0.056153416726813676 0.042552660722056788 -0.063391669502238332 -0.068889163335187686 0.076970777729628181 0.010373639726105006 0.078984329327392480 -0.139028036978450176 -0.079359929198720008 0.059150771108148724 -0.040879650025044179 -0.012841994466756964 -0.025917279125792860 -0.052864519926087039 0.088309437800145538 0.070693819794339655 -0.057768881732565350 -0.011035564043797809 0.073671247422569003 -0.141761922865485168 -0.047330013942517651 0.076924286662516800 -0.080000077766051614 0.053966326749148127 0.002233706038314312 -0.071452114564450331 -0.002402829913574278 -0.005025430239011541 -0.028141827373714710 0.049382006435952829 -0.008072187368440124 0.004962660984204307 -0.017227029670857395 0.008300676492610768 -0.012995999584132284 0.006580939918301969 0.005800541895598684 -0.016139329570620056 0.004711701714993242 
-0.426089926160106269 -0.378920539088082098 -0.270259347318824839 -0.194051028563870492 -0.265636078466306602 -0.044161842271377524 -0.567926690815186430 0.040554842849731196 0.194955416022649791 -0.086090429798048720 0.505564020865014618 -0.176290719063633389 -0.391116891422029600 -0.083840263897986780 0.082244838657314717 0.039832600805472497 -0.062615818136971479 0.114553103545497290 0.360753713767307471 -0.112645274255153624 -0.386183890361019966 -0.323458115838551219 0.030486435600855243 -0.196150074875263064 0.058721953470073550 -0.183213638787636829 -0.156249581338018778 0.414966596529424470 -0.263555444689466678 -0.226441359065386622 0.316368914811739121 -0.011395279401487293 0.059159713556528611 -0.210755513338484218 0.005332408933615095 0.183832727186291761 0.201047136850673575 0.009524395070107739 -0.064255992955484523 0.098736689054352469 0.180009099256668775 0.053831622413685769 -0.024619192660221910 -0.043488802990866708 -0.134041574959835735 0.138200219768870342 -0.176408543637501775 0.217866500955453790 -0.221233692422412254 -0.091499309110573093 0.075748729505510426 -0.075722685928304515 0.014179021203020274 -0.047686400978236260 0.089198463642092746 0.169553852973070046 -0.079520759275675285 -0.020932740924017760 0.068880411761210444 -0.195430285755580996 -0.172470981658717631 -0.083672345954535057 0.054377924925518767 0.087505166393723091 0.027294329407923323 -0.046414302693874532 -0.002591425288373765 0.153888528812377912 -0.293287921325692924 -0.158613336998617099 0.014960420298833153 -0.021658333962736483 -0.086299745018933033 -0.060217442107710656 0.157531054540466786 -0.083880375302358756 -0.037853529507882580 -0.095211838177478414 0.034786663394180600 -0.074353036723254162 -0.233610666557403451 0.233797219062569755 -0.078732410174229370 -0.113927090220760696 0.156853111459114708 -0.225489943017637806 -0.089577174059318587 -0.310541530756119788 0.196650291430442575 0.231214822631184563 0.221577716301343319 -0.179308621968889387 0.028886839711785392 0.098886252511143996 -0.108365129692005596 -0.182160084337806560 0.381194622433051633 -0.071886996994270230 0.042960804128807054 0.078727245123242376 -0.228491101932701224 -0.048437367167577988 -0.025567632729096231 0.154337317318488793 -0.169230110106685927 0.154339072790964371 0.221206140464207945 -0.217690340965560336 0.178774673382643495 -0.067582407462561528 -0.085941220929438095 0.191201083442316816 -0.030546312248001084 0.024726968199898267 0.022992569909423451 -0.357632960806748335 0.085821307047916143 -0.130843842801957322 -0.033006059053424727 -0.177460346402675495 0.048855455192140691 -0.118900424185340386 0.041297769556210499 -0.099639537087534466 0.327708008234826487 0.145600560345904850 0.084902516744857964 -0.090289117393586180 -0.191156279915247695 -0.132493284458460009 -0.106818360562618717 -0.126051912981168079 -0.178847727001683415 -0.177160915028335031 -0.072630578695460440 -0.042347451980000214 -0.073774932792407821 0.279528654269346644 -0.043626415829566056 0.428043133935289699 0.274884597529660768 -0.102675812344176637 0.249709451035776103 0.018525031046926949 -0.072540848670262850 0.097313196630394921 0.025758692459082601 -0.061658594475701468 -0.142331181248627009 -0.118585769265507263 0.091431244325161892 -0.138464877255319169 0.240530238582837591 -0.180916574570582411 -0.024271813088359281 -0.062868179373296251 0.026261925923950880 -0.124617167495651007 0.094332888241533713 0.063973445863885120 0.086639604483873950 -0.169678512847056318 -0.081033585704516742 0.084739185809700301 -0.028629916348356564 -0.140498805397546445 0.039885465181793353 0.102945881358837310 0.077282677607201658 0.042526173923278482 0.069193362158707500 0.263725334785538723 0.099498192010569447 -0.102112627304694267 -0.172573565554013986 -0.052375310735243458 -0.036840364168562068 0.121399335936287586 0.063780028242905032 0.003640561909503569 0.101485421648330465 -0.051351149529656935 -0.049216748345424249 0.025538527579308141 0.025623933614382019 -0.012230155508967598 -0.024156503618349753 -0.150993914611760927 -0.158100161025312907 0.011443650150256177 -0.014121746679646996 -0.156487904624136087 -0.205694508228703915 -0.151873364033578512 0.085386001495342270 0.143694835472546439 -0.106993361813055021 -0.010639900147291371 -0.001765024672151621 0.109067392981419028 0.020545198599417488 -0.146673883480735817 0.043976632429395084 0.051837755363854196 0.090409139200707575 -0.050441925774815370 0.128961901189911049 0.002239270299398046 -0.047851691043606689 -0.010833910904854926 -0.003317944233402409 0.115552438169085100 -0.114931013188038861 0.084579102192356287 0.043673934468571651 -0.051358944383778235 -0.052933778795311907 -0.001664552346353414 -0.029706276679882439 -0.013970749312144775 0.083700466307560575 0.077014845346105879 -0.168361486201106164 -0.047664546370116190 -0.008173408350243364 0.065237762327519613 0.061670143978944068 0.183426182333085330 0.062757733578849687 -0.131892405578514005 -0.046519030484263806 0.126535101336599287 -0.109780723320484455 0.062392251648712885 0.015082053355162231 0.111043259763545940 0.017993711107394117 -0.057727041495379730 -0.004558766193002393 -0.031863268111831808 -0.129890278182372587 0.061390857485386384 -0.045517939268459963 -0.061269676421344586 0.067132948401022227 0.008222359667793442 0.002433915979034933 0.031312811134905146 0.012138662473797418 -0.021539946104705086 0.013422003664524550 0.039002789845931349 -0.110600795549270714 -0.036444570099627767 0.025029677288938412 0.041621039008760130 0.045051193795601865 0.015380390042716767 -0.070562005184643409 0.024935646137133251 0.000985330900908522 0.062811196718942308 -0.014132053176237143 0.002762515888762162 -0.005245785813623965 0.033001730495091745 -0.005911125614807905 0.004935988051882623 
-0.371224051476621908 -0.395056655179983174 -0.340692315363471332 -0.226666789443603134 -0.382413680543877144 -0.112566163992760662 -0.466275705314646127 0.004974945922507131 0.353496464113274900 -0.003141807525506811 0.481977768426470388 -0.156581686015302868 -0.334750707066506614 -0.043045476897092261 0.044545112807284508 0.017202011573155488 0.068588845112586380 -0.132777215875330756 -0.237603956451889420 0.013739649054734050 0.025352711377437106 -0.206223400710318638 0.164444487757408886 0.034166056705952089 -0.202698747042595745 0.238186754972294829 -0.095049565912904754 -0.143520928060874714 -0.046930160340783608 -0.136572236834424654 0.096673493801599841 -0.127138771438923770 0.041982343421702893 -0.073405082080143791 -0.003496356283072785 -0.181475323781369352 -0.082883995612957062 -0.178931601710133642 0.113213103492429898 -0.228408194796177272 0.221677702692525097 0.298081537434746580 0.173481783467009015 -0.185728983132787601 0.128055848767831409 0.434024739861198883 0.167257230078136782 -0.268027730372070061 -0.102121537563085979 -0.231574534474567606 -0.003657486066497722 0.363523416169461711 -0.162941641701821460 0.307630731794923784 0.011696285702196895 0.025863915738883591 -0.033715864965942706 -0.280686388981860435 0.216231687061459316 0.318263193779340148 0.105232513887291698 0.048556740561051234 -0.124716856963144176 -0.110504405648628873 0.053564805387493863 -0.009792368044063547 0.065424566043160354 0.345276095853147280 -0.162498210611685179 -0.150014882033101371 0.082431807803494975 0.116411092703891550 0.057248109506697752 -0.112777202585808284 0.030697205950764368 0.187730642778427659 -0.040971648644699543 0.040036440680390174 -0.078793797926921413 0.044150664347823741 0.260602145508199268 -0.352438777704731920 -0.021320236737679167 0.256944726012163671 0.167658188720587298 0.046013078218005453 -0.191085675467781518 -0.151654466660680387 -0.100730932666933934 0.003313438711804800 0.262488146868046501 0.163852442105768159 0.087931457162989876 -0.086139246833386085 0.107409383979014297 -0.044805942465586189 -0.109589376834543714 0.016836103592166078 -0.108365197784845560 0.249342489706124382 -0.009294070858464195 -0.072714492741222228 0.245936204322636687 0.183224063379890334 0.160564592391617883 -0.225576284863729104 0.006673836530018813 0.286342923823867057 0.079507408410310121 -0.051992988931245376 -0.060497603728941869 -0.122838590484456403 -0.054093088576077329 0.091674603472240296 -0.323540717688238999 0.023455162331395597 0.274872485506238995 -0.007106833067980732 0.094911887682178592 -0.069452472122707359 0.080829043870480996 0.056557326356172749 -0.178235583055353197 -0.119428661172922793 -0.067088387935003602 -0.019234030612615874 -0.088921453873698195 -0.032110763505182535 0.037342855776873358 0.004601087562523014 -0.010005844062558703 0.015810549967304136 -0.054523144300903242 -0.042233454298288023 0.132834872639855911 -0.049993159440321573 0.184275742807723464 0.250562353771784985 0.129197037818436139 -0.146434280742034961 -0.242285490383157526 -0.175188025767033212 0.161613032865314393 -0.245331959635184005 -0.030197702625448894 -0.098877372116229947 -0.018532664908382651 -0.022175623668238959 0.073144143994991265 0.019241956979682579 0.003660597163458929 -0.021036850796042349 -0.050864654507570328 -0.077169487895066072 0.131310339872952236 -0.062921792862852322 0.030417694588619613 0.207278743782489228 -0.082901019708467916 0.106880067027617640 0.014861318146455794 0.191091045749413657 0.013636934158628945 -0.131813764065642380 -0.067521354982383000 -0.028414137144605840 -0.005353970710313438 0.038552824316655389 0.050226990820630923 0.157771584404682891 0.052351338139243246 0.152349117088352887 0.339336317386013220 -0.162517670849606333 -0.070922357820717694 0.140604811204082136 -0.273280462422281933 -0.053376048054095668 0.044256580273774999 -0.047406029656431724 0.007947741047835121 -0.030946641945362775 -0.132320592867371079 0.118724234821878660 -0.029843486395417618 -0.182834679530891414 0.120595456680161875 0.119268956819371871 -0.036865480457439592 -0.315918364111196837 -0.161325770118544765 0.006096797044631414 -0.015930622263918958 -0.123070178707137018 -0.077748513807117656 0.070007811500655201 -0.019799168851489590 -0.155455236140710579 -0.086076087100546331 -0.088329709794036038 -0.083657221449243258 0.129505157750788774 -0.024796602240915063 -0.033861072267710908 0.107683879341722369 0.074358165898229800 0.073657876243148526 0.040151864581443340 -0.004021949804142289 0.057016594151112737 -0.226916119116593762 0.003664572742187504 -0.059124257407974661 0.139351279484962898 0.016468584375324863 -0.011479525082418816 0.087074874577220518 -0.059156675817286140 0.061663790401239961 0.080565040585375378 -0.064115268755116708 -0.114036397410688828 -0.023950938186537322 0.059436525124906117 -0.037108066172926682 0.106044465957417011 -0.053576251008205546 0.043384782493249965 0.074707712073694074 0.047852128441920029 0.067700115511618100 -0.088421279096385044 0.031303962600498898 -0.109448078049779560 0.046373235676012210 -0.087879633741912030 0.062862863306732977 -0.028555620947856911 -0.011633299829024392 0.021162678952175704 -0.067444416942284618 -0.004201343228390011 -0.035269766628684446 0.033043032395927818 0.009097500305397837 -0.078495236017141520 0.037685478429317833 0.036366273069802217 -0.024694284283643213 0.038301363859023704 -0.006811900329081804 0.036266275300468644 0.078226209736365973 -0.060217174943784320 -0.056615867408183057 -0.025326818951465883 0.137386465130200031 -0.024310989659174043 -0.043423283057771232 -0.030528847002908418 0.021250004525887659 -0.026569023940949340 -0.008356265823994395 -0.027889915462811925 0.005166897696504904 0.023927067939410383 -0.006926762261460192 0.027397234285252779 
-0.390700891709618303 -0.398775126214521658 -0.353429194190798213 -0.213801968069954801 -0.430022258712504157 -0.149113559751276409 -0.376005743050504715 0.020383201030198913 0.376273675527040441 0.008781473122663171 0.425260975280309872 -0.301735846100884830 -0.313741420400205528 -0.081790311452053135 -0.115420750562919117 0.095463586256703661 -0.044832061498300942 0.078359411078002317 0.226726010193899430 0.047971361513799833 0.024968469363280232 0.605617004746501486 0.022835359159019603 0.242065129826735309 0.066447458332231243 0.071565865335151399 -0.106469761409042518 0.218939050173806660 0.048653697663976044 0.229359440556059724 -0.148330656903514685 -0.087566550964057743 0.153405343396213006 0.054457103832352749 -0.059648686170534801 -0.009980913224834798 0.040977336295480039 -0.116797331061916421 0.073207480217676951 0.087885089312611811 0.037992530896363931 -0.182354456608253696 0.011034626337557252 -0.245883697121090899 -0.241868309366854550 0.253263264436559610 -0.233559157757960323 0.074100401913144778 -0.035693011195596758 -0.124204804806910277 -0.036484306322866762 0.219571320091480643 -0.336177078656650363 -0.059498590992594885 0.011857391382739677 -0.300243531526878715 0.296611139920522349 0.076292654380021543 0.038178315186886962 -0.082792978140868681 -0.185924150879739208 -0.343688587930557232 -0.133206856311722160 0.020112356390824069 -0.019868186414604114 -0.200297278544178919 -0.107420842757028109 0.008460078591906107 0.145031075913849949 0.037854427989935664 0.263956635461381428 0.075609492673417933 -0.296410963520720161 -0.109566571610818245 0.136587333940901390 0.012078783395628619 -0.017188240461034125 0.028396363365907919 0.225826181612805682 -0.060892653983015146 -0.248662992983952391 -0.062620211084699978 0.203594914477744415 0.014230151331567027 0.103711380106527834 -0.013261598984787034 0.069473492336907583 0.004338836488843693 0.017767387886274456 0.187205724015101632 0.041986486892685929 -0.034975396484638960 -0.029402453010146951 0.218963226147169732 -0.004439845701872891 0.075381887735304076 -0.035399565180968082 -0.056543240604802793 0.057355650470023459 -0.139236416493024040 0.012462428197909933 -0.109084596538219752 0.061375789347541385 -0.207526782336444671 0.193875255769989152 0.083398817446418444 -0.037806373473411183 0.002094502329013650 0.028871383260030817 -0.164315386899610894 -0.432625439933233269 0.242694935368744980 -0.137350652843880844 0.052756950535944980 -0.128834563603808211 0.007139033072111115 0.146065269353097271 0.196600856474655916 -0.152276534421274451 -0.081100918896454974 -0.039181605387441830 0.104108345760543730 -0.095431940595690434 -0.192022473816640560 0.037964210615085724 -0.240244879816742085 0.223865510005079732 0.076270238043501359 0.089210710400647736 0.164520371185501807 -0.155827633558814210 -0.010143702968967378 0.270795387998159109 0.210419823908107900 -0.134680873701741338 0.266430638784631801 0.060977905098214900 -0.128060363502061153 0.191653280723858982 0.169848649680594127 -0.131402040274147647 -0.037588170205419179 -0.016174998335569235 -0.086532710690169476 0.010023302047983584 -0.062084867368696700 -0.008730535274113197 0.097896378963812966 0.227630392079108707 -0.223828853229991132 -0.154127444703047373 -0.199537906650595537 0.120093768105526716 -0.188755985655909980 0.083512206810491735 0.243943766291915165 -0.163849675410438961 -0.016225274405854626 0.101077803951463208 -0.212398408360364971 -0.071160231681787534 0.307136470860108868 -0.164547468087336335 -0.202702204225618215 0.060948804679792655 0.097172359575359857 0.123454688159971404 -0.052982733414093534 -0.028224774647470859 -0.040814760538376314 0.040423215586815324 -0.020746936263428110 -0.305400010593641913 0.170103338180348423 -0.265829799918799070 -0.019067983814782672 0.320386941545968584 0.075956617699222934 0.073168852200501316 -0.180395782563307849 -0.065347215637939687 0.005813608265812821 0.115322824219369319 0.050729416285298659 0.013171473489014015 -0.044511484843774533 0.014967057715121742 0.103906308267160019 0.020139706896327502 -0.054940680378408088 -0.085703393224311961 -0.029769395410461062 -0.055942058968249296 0.050399290233899802 0.091456493490835705 -0.006561965885478337 0.023427266417708335 -0.076283230522178197 -0.205037777645086794 0.094913649188779453 0.080187313314095163 0.063719963652091482 -0.045525203899587467 0.154921063730364406 -0.001428378245968410 -0.035954814028269541 0.015252485140145773 -0.077729374112568375 -0.021661948160046681 -0.191996355710101596 0.052921348974483480 -0.068082186517251786 0.093096744433572104 -0.012208922337279609 0.051260749802655298 0.004455891289097036 -0.031947952289100620 0.001031853452894541 0.016449462460297611 0.044801738388058107 0.119572625801278698 -0.156924207374369684 -0.049506731700772244 -0.009637990573912247 -0.074697955317569120 -0.123111492683527099 -0.072613320443109114 -0.097912885034117367 -0.011366368943798309 -0.033505697816527742 0.112650190058259228 0.000264634922244730 0.019519283451692869 -0.073840803596584834 -0.130811889408047222 0.011353286040968165 -0.100760367246388469 -0.063000963904493751 -0.017312863756751000 0.031961054665524520 0.084979541223741323 -0.070321554249756946 0.052613567442582963 0.047944586118146580 0.122193855454151859 -0.084010165027238862 -0.015221807921809634 -0.030337705603613652 0.018890912632065420 0.074033918308661503 -0.045388621277808995 0.004884679636184088 0.014749860306716324 -0.037192969631655685 0.013897397521169740 -0.045143727670372599 0.065948512534516640 0.002927088771907677 -0.012554143305529670 -0.001964202505326496 -0.017497103294368103 -0.003593448838930066 -0.002915065719796110 0.038899737520465744 0.014160580133927176 -0.038771158479683383 -0.005016483203485518 -0.025241667324167716 
